svm_type c_svc
kernel_type rbf
gamma 0.333333
nr_class 2
total_sv 469
rho -0.00197217 
label 0 255 
nr_sv 234 235 
SV 
1 1:189 2:180 3:183 
1 1:186 2:182 3:173 
1 1:178 2:176 3:163 
0.9813120088400756 1:174 2:172 3:159 
0.9999999999806178 1:170 2:170 3:158 
0.9906046983562906 1:187 2:188 3:183 
0.9951894023446337 1:184 2:185 3:180 
0.9999995841640305 1:193 2:190 3:183 
0.9676787916891589 1:192 2:188 3:179 
0.9936635412372183 1:201 2:194 3:184 
0.9999965120578201 1:203 2:196 3:186 
1 1:199 2:191 3:180 
1 1:194 2:186 3:175 
1 1:194 2:186 3:175 
1 1:199 2:191 3:180 
1 1:189 2:180 3:183 
1 1:194 2:186 3:175 
1 1:194 2:186 3:175 
1 1:199 2:191 3:180 
1 1:194 2:186 3:175 
1 1:199 2:191 3:180 
1 1:199 2:191 3:180 
1 1:194 2:186 3:175 
1 1:194 2:186 3:175 
1 1:178 2:176 3:163 
1 1:178 2:176 3:163 
1 1:194 2:186 3:175 
1 1:178 2:176 3:163 
1 1:194 2:186 3:175 
1 1:199 2:191 3:180 
1 1:194 2:186 3:175 
1 1:72 2:84 3:96 
1 1:199 2:191 3:180 
1 1:199 2:191 3:180 
1 1:194 2:186 3:175 
1 1:199 2:191 3:180 
1 1:178 2:176 3:163 
1 1:199 2:191 3:180 
1 1:199 2:191 3:180 
1 1:199 2:191 3:180 
1 1:199 2:191 3:180 
1 1:199 2:191 3:180 
1 1:194 2:186 3:175 
1 1:178 2:176 3:163 
1 1:194 2:186 3:175 
1 1:194 2:186 3:175 
1 1:199 2:191 3:180 
1 1:194 2:186 3:175 
1 1:194 2:186 3:175 
1 1:199 2:191 3:180 
1 1:178 2:176 3:163 
1 1:178 2:176 3:163 
1 1:72 2:84 3:96 
1 1:80 2:92 3:106 
1 1:80 2:92 3:106 
1 1:76 2:88 3:102 
1 1:76 2:88 3:102 
1 1:68 2:80 3:94 
1 1:178 2:176 3:163 
1 1:68 2:80 3:94 
1 1:68 2:80 3:94 
1 1:68 2:80 3:94 
1 1:72 2:89 3:107 
1 1:68 2:80 3:94 
1 1:68 2:80 3:94 
1 1:68 2:80 3:94 
1 1:72 2:89 3:107 
1 1:68 2:80 3:94 
1 1:68 2:80 3:94 
1 1:68 2:80 3:94 
1 1:68 2:80 3:94 
1 1:68 2:80 3:94 
1 1:68 2:80 3:94 
1 1:68 2:80 3:94 
1 1:68 2:80 3:94 
1 1:68 2:80 3:94 
1 1:68 2:80 3:94 
1 1:68 2:80 3:94 
1 1:68 2:80 3:94 
1 1:68 2:80 3:94 
1 1:68 2:80 3:94 
1 1:68 2:80 3:94 
1 1:68 2:80 3:94 
1 1:68 2:80 3:94 
1 1:68 2:80 3:94 
1 1:68 2:80 3:94 
1 1:68 2:80 3:94 
1 1:67 2:83 3:98 
1 1:67 2:83 3:98 
1 1:68 2:84 3:100 
1 1:68 2:80 3:94 
1 1:68 2:80 3:94 
1 1:68 2:80 3:94 
1 1:68 2:84 3:100 
1 1:68 2:80 3:94 
1 1:68 2:80 3:94 
1 1:68 2:80 3:94 
1 1:68 2:80 3:94 
1 1:68 2:80 3:94 
1 1:68 2:80 3:94 
1 1:68 2:80 3:94 
1 1:68 2:80 3:94 
1 1:68 2:80 3:94 
1 1:68 2:80 3:94 
1 1:68 2:80 3:94 
1 1:68 2:80 3:94 
1 1:68 2:80 3:94 
1 1:68 2:80 3:94 
1 1:68 2:80 3:94 
1 1:68 2:80 3:94 
1 1:68 2:80 3:94 
1 1:68 2:80 3:94 
1 1:68 2:80 3:94 
1 1:68 2:80 3:94 
1 1:68 2:80 3:94 
1 1:68 2:80 3:94 
1 1:68 2:80 3:94 
1 1:68 2:80 3:94 
1 1:68 2:80 3:94 
1 1:68 2:80 3:94 
1 1:68 2:80 3:94 
1 1:68 2:80 3:94 
1 1:68 2:80 3:94 
1 1:68 2:80 3:94 
1 1:68 2:80 3:94 
1 1:68 2:80 3:94 
1 1:68 2:80 3:94 
1 1:68 2:80 3:94 
1 1:68 2:80 3:94 
1 1:68 2:80 3:94 
1 1:68 2:80 3:94 
1 1:68 2:80 3:94 
1 1:68 2:80 3:94 
1 1:68 2:80 3:94 
1 1:68 2:80 3:94 
1 1:68 2:80 3:94 
1 1:68 2:80 3:94 
1 1:68 2:80 3:94 
1 1:68 2:80 3:94 
1 1:68 2:80 3:94 
1 1:68 2:80 3:94 
1 1:68 2:80 3:94 
1 1:68 2:80 3:94 
1 1:68 2:80 3:94 
1 1:68 2:80 3:94 
0.9930744400242618 1:68 2:80 3:94 
1 1:178 2:176 3:163 
1 1:178 2:176 3:163 
1 1:178 2:176 3:163 
1 1:178 2:176 3:163 
1 1:178 2:176 3:163 
1 1:178 2:176 3:163 
1 1:178 2:176 3:163 
1 1:178 2:176 3:163 
1 1:178 2:176 3:163 
1 1:178 2:176 3:163 
1 1:178 2:176 3:163 
1 1:178 2:176 3:163 
1 1:178 2:176 3:163 
1 1:178 2:176 3:163 
1 1:178 2:176 3:163 
1 1:178 2:176 3:163 
1 1:178 2:176 3:163 
1 1:178 2:176 3:163 
1 1:178 2:176 3:163 
1 1:178 2:176 3:163 
1 1:178 2:176 3:163 
1 1:178 2:176 3:163 
1 1:178 2:176 3:163 
1 1:178 2:176 3:163 
1 1:178 2:176 3:163 
1 1:178 2:176 3:163 
1 1:178 2:176 3:163 
1 1:178 2:176 3:163 
1 1:178 2:176 3:163 
1 1:178 2:176 3:163 
1 1:178 2:176 3:163 
1 1:178 2:176 3:163 
1 1:178 2:176 3:163 
1 1:178 2:176 3:163 
1 1:178 2:176 3:163 
1 1:178 2:176 3:163 
1 1:178 2:176 3:163 
1 1:178 2:176 3:163 
1 1:178 2:176 3:163 
1 1:178 2:176 3:163 
1 1:178 2:176 3:163 
1 1:178 2:176 3:163 
1 1:178 2:176 3:163 
1 1:178 2:176 3:163 
1 1:178 2:176 3:163 
1 1:178 2:176 3:163 
1 1:178 2:176 3:163 
1 1:178 2:176 3:163 
1 1:178 2:176 3:163 
1 1:178 2:176 3:163 
1 1:178 2:176 3:163 
1 1:178 2:176 3:163 
1 1:178 2:176 3:163 
1 1:178 2:176 3:163 
1 1:178 2:176 3:163 
1 1:178 2:176 3:163 
1 1:178 2:176 3:163 
1 1:178 2:176 3:163 
1 1:178 2:176 3:163 
1 1:178 2:176 3:163 
1 1:178 2:176 3:163 
1 1:178 2:176 3:163 
1 1:178 2:176 3:163 
1 1:178 2:176 3:163 
1 1:178 2:176 3:163 
1 1:178 2:176 3:163 
1 1:178 2:176 3:163 
1 1:178 2:176 3:163 
1 1:178 2:176 3:163 
1 1:178 2:176 3:163 
1 1:178 2:176 3:163 
1 1:178 2:176 3:163 
1 1:178 2:176 3:163 
1 1:178 2:176 3:163 
1 1:178 2:176 3:163 
1 1:178 2:176 3:163 
1 1:178 2:176 3:163 
1 1:178 2:176 3:163 
1 1:178 2:176 3:163 
1 1:178 2:176 3:163 
1 1:178 2:176 3:163 
1 1:178 2:176 3:163 
1 1:178 2:176 3:163 
1 1:178 2:176 3:163 
1 1:178 2:176 3:163 
1 1:178 2:176 3:163 
1 1:178 2:176 3:163 
0.9977675744203847 1:189 2:180 3:183 
-1 1:189 2:180 3:183 
-1 1:68 2:80 3:94 
-1 1:68 2:80 3:94 
-1 1:68 2:80 3:94 
-1 1:68 2:80 3:94 
-1 1:178 2:176 3:163 
-1 1:178 2:176 3:163 
-1 1:178 2:176 3:163 
-1 1:178 2:176 3:163 
-1 1:178 2:176 3:163 
-1 1:178 2:176 3:163 
-1 1:178 2:176 3:163 
-1 1:178 2:176 3:163 
-1 1:178 2:176 3:163 
-1 1:178 2:176 3:163 
-1 1:178 2:176 3:163 
-1 1:178 2:176 3:163 
-1 1:178 2:176 3:163 
-1 1:178 2:176 3:163 
-1 1:178 2:176 3:163 
-1 1:178 2:176 3:163 
-1 1:178 2:176 3:163 
-1 1:178 2:176 3:163 
-1 1:178 2:176 3:163 
-1 1:178 2:176 3:163 
-1 1:178 2:176 3:163 
-1 1:178 2:176 3:163 
-1 1:68 2:80 3:94 
-1 1:68 2:80 3:94 
-1 1:68 2:80 3:94 
-1 1:68 2:80 3:94 
-1 1:178 2:176 3:163 
-1 1:178 2:176 3:163 
-1 1:178 2:176 3:163 
-1 1:178 2:176 3:163 
-1 1:178 2:176 3:163 
-1 1:178 2:176 3:163 
-1 1:178 2:176 3:163 
-1 1:178 2:176 3:163 
-1 1:178 2:176 3:163 
-1 1:178 2:176 3:163 
-1 1:178 2:176 3:163 
-1 1:178 2:176 3:163 
-1 1:178 2:176 3:163 
-1 1:178 2:176 3:163 
-1 1:68 2:80 3:94 
-1 1:178 2:176 3:163 
-1 1:178 2:176 3:163 
-1 1:178 2:176 3:163 
-1 1:178 2:176 3:163 
-1 1:178 2:176 3:163 
-1 1:178 2:176 3:163 
-1 1:178 2:176 3:163 
-1 1:178 2:176 3:163 
-1 1:178 2:176 3:163 
-1 1:178 2:176 3:163 
-1 1:68 2:80 3:94 
-1 1:68 2:80 3:94 
-1 1:68 2:80 3:94 
-1 1:68 2:80 3:94 
-1 1:68 2:80 3:94 
-1 1:68 2:80 3:94 
-1 1:68 2:80 3:94 
-1 1:68 2:80 3:94 
-1 1:68 2:80 3:94 
-1 1:178 2:176 3:163 
-1 1:178 2:176 3:163 
-1 1:178 2:176 3:163 
-1 1:178 2:176 3:163 
-1 1:178 2:176 3:163 
-1 1:68 2:80 3:94 
-1 1:178 2:176 3:163 
-1 1:178 2:176 3:163 
-1 1:178 2:176 3:163 
-1 1:178 2:176 3:163 
-1 1:178 2:176 3:163 
-1 1:178 2:176 3:163 
-1 1:178 2:176 3:163 
-1 1:178 2:176 3:163 
-1 1:178 2:176 3:163 
-1 1:178 2:176 3:163 
-1 1:178 2:176 3:163 
-1 1:178 2:176 3:163 
-1 1:178 2:176 3:163 
-1 1:178 2:176 3:163 
-1 1:178 2:176 3:163 
-1 1:178 2:176 3:163 
-1 1:178 2:176 3:163 
-1 1:178 2:176 3:163 
-1 1:178 2:176 3:163 
-1 1:178 2:176 3:163 
-1 1:178 2:176 3:163 
-1 1:178 2:176 3:163 
-1 1:178 2:176 3:163 
-1 1:178 2:176 3:163 
-1 1:178 2:176 3:163 
-1 1:178 2:176 3:163 
-1 1:178 2:176 3:163 
-1 1:178 2:176 3:163 
-1 1:178 2:176 3:163 
-1 1:178 2:176 3:163 
-1 1:178 2:176 3:163 
-1 1:178 2:176 3:163 
-1 1:178 2:176 3:163 
-1 1:178 2:176 3:163 
-1 1:178 2:176 3:163 
-1 1:178 2:176 3:163 
-1 1:68 2:80 3:94 
-1 1:68 2:80 3:94 
-0.004789471109802879 1:184 2:185 3:180 
-1 1:68 2:80 3:94 
-1 1:68 2:80 3:94 
-1 1:68 2:80 3:94 
-1 1:68 2:80 3:94 
-1 1:68 2:80 3:94 
-1 1:68 2:80 3:94 
-1 1:68 2:80 3:94 
-1 1:68 2:80 3:94 
-1 1:68 2:80 3:94 
-1 1:68 2:80 3:94 
-1 1:68 2:80 3:94 
-1 1:68 2:80 3:94 
-1 1:68 2:80 3:94 
-1 1:68 2:80 3:94 
-1 1:68 2:80 3:94 
-1 1:68 2:80 3:94 
-1 1:68 2:80 3:94 
-1 1:68 2:80 3:94 
-1 1:68 2:80 3:94 
-1 1:68 2:80 3:94 
-1 1:178 2:176 3:163 
-1 1:178 2:176 3:163 
-1 1:178 2:176 3:163 
-1 1:178 2:176 3:163 
-1 1:178 2:176 3:163 
-0.9888529435818521 1:170 2:170 3:158 
-1 1:178 2:176 3:163 
-1 1:68 2:80 3:94 
-1 1:178 2:176 3:163 
-1 1:178 2:176 3:163 
-1 1:189 2:180 3:183 
-1 1:194 2:186 3:175 
-1 1:194 2:186 3:175 
-1 1:194 2:186 3:175 
-1 1:194 2:186 3:175 
-1 1:194 2:186 3:175 
-1 1:194 2:186 3:175 
-1 1:194 2:186 3:175 
-1 1:199 2:191 3:180 
-1 1:199 2:191 3:180 
-1 1:194 2:186 3:175 
-1 1:194 2:186 3:175 
-1 1:199 2:191 3:180 
-1 1:199 2:191 3:180 
-1 1:194 2:186 3:175 
-1 1:194 2:186 3:175 
-1 1:199 2:191 3:180 
-1 1:199 2:191 3:180 
-1 1:199 2:191 3:180 
-1 1:199 2:191 3:180 
-1 1:199 2:191 3:180 
-1 1:199 2:191 3:180 
-1 1:199 2:191 3:180 
-1 1:199 2:191 3:180 
-1 1:199 2:191 3:180 
-1 1:199 2:191 3:180 
-1 1:194 2:186 3:175 
-1 1:170 2:170 3:158 
-1 1:68 2:80 3:94 
-1 1:68 2:80 3:94 
-1 1:68 2:80 3:94 
-1 1:68 2:80 3:94 
-1 1:68 2:80 3:94 
-1 1:68 2:80 3:94 
-1 1:68 2:80 3:94 
-1 1:68 2:80 3:94 
-1 1:68 2:80 3:94 
-1 1:68 2:80 3:94 
-1 1:68 2:80 3:94 
-1 1:194 2:186 3:175 
-1 1:68 2:80 3:94 
-1 1:194 2:186 3:175 
-1 1:194 2:186 3:175 
-1 1:199 2:191 3:180 
-1 1:68 2:80 3:94 
-1 1:68 2:80 3:94 
-1 1:68 2:80 3:94 
-1 1:68 2:80 3:94 
-1 1:68 2:80 3:94 
-1 1:68 2:80 3:94 
-1 1:68 2:80 3:94 
-1 1:68 2:80 3:94 
-1 1:68 2:80 3:94 
-1 1:68 2:80 3:94 
-1 1:68 2:80 3:94 
-1 1:68 2:80 3:94 
-1 1:68 2:80 3:94 
-1 1:184 2:185 3:180 
-1 1:193 2:190 3:183 
-1 1:193 2:190 3:183 
-1 1:203 2:196 3:186 
-1 1:203 2:196 3:186 
-1 1:194 2:186 3:175 
-1 1:194 2:186 3:175 
-1 1:186 2:182 3:173 
-1 1:178 2:176 3:163 
-1 1:199 2:191 3:180 
-1 1:178 2:176 3:163 
-1 1:68 2:80 3:94 
-1 1:68 2:80 3:94 
-1 1:68 2:80 3:94 
-1 1:68 2:80 3:94 
-1 1:68 2:80 3:94 
-1 1:68 2:80 3:94 
-1 1:68 2:80 3:94 
-1 1:68 2:80 3:94 
-1 1:68 2:80 3:94 
-1 1:68 2:80 3:94 
-1 1:68 2:80 3:94 
-1 1:68 2:80 3:94 
-0.9999995841640306 1:72 2:89 3:107 
-0.9952105288901971 1:71 2:86 3:105 
-1 1:72 2:89 3:107 
-0.9999999999806178 1:68 2:85 3:101 
-1 1:68 2:84 3:99 
-1 1:67 2:83 3:98 
-0.9676787916891589 1:70 2:83 3:99 
-0.9999965120578201 1:72 2:84 3:96 
-1 1:68 2:80 3:94 
-1 1:68 2:80 3:94 
-0.9813120088400756 1:78 2:90 3:104 
-0.9999999999999999 1:82 2:94 3:108 
-0.9908420144446465 1:80 2:92 3:106 
-0.9906046983562906 1:74 2:86 3:100 
-1 1:76 2:88 3:102 
