svm_type c_svc
kernel_type rbf
gamma 0.333333
nr_class 2
total_sv 164860
rho -0.37757 
label 0 255 
nr_sv 82462 82398 
SV 
1 1:189 2:180 3:183 
1 1:189 2:184 3:181 
1 1:187 2:182 3:176 
1 1:186 2:182 3:173 
1 1:184 2:182 3:170 
1 1:178 2:176 3:163 
1 1:174 2:172 3:159 
1 1:170 2:170 3:158 
1 1:175 2:175 3:165 
1 1:184 2:184 3:176 
1 1:189 2:188 3:183 
1 1:187 2:188 3:183 
1 1:184 2:185 3:180 
1 1:191 2:188 3:181 
1 1:192 2:189 3:182 
1 1:192 2:189 3:182 
1 1:193 2:190 3:183 
1 1:194 2:190 3:181 
1 1:193 2:189 3:180 
1 1:193 2:189 3:180 
1 1:192 2:188 3:179 
1 1:201 2:194 3:184 
1 1:203 2:196 3:186 
1 1:203 2:196 3:186 
1 1:199 2:191 3:180 
1 1:194 2:186 3:175 
1 1:194 2:186 3:175 
1 1:199 2:191 3:180 
1 1:205 2:197 3:186 
1 1:200 2:193 3:177 
1 1:189 2:183 3:169 
1 1:182 2:176 3:164 
1 1:187 2:180 3:172 
1 1:196 2:189 3:183 
1 1:194 2:189 3:185 
0.9862735664292833 1:187 2:182 3:179 
1 1:198 2:193 3:190 
1 1:191 2:188 3:183 
1 1:190 2:187 3:180 
1 1:192 2:189 3:180 
1 1:198 2:198 3:186 
1 1:205 2:206 3:192 
1 1:142 2:142 3:140 
1 1:158 2:158 3:156 
1 1:164 2:164 3:162 
1 1:157 2:157 3:155 
1 1:163 2:163 3:161 
1 1:153 2:153 3:151 
1 1:158 2:158 3:156 
1 1:160 2:160 3:158 
1 1:165 2:165 3:163 
1 1:197 2:197 3:195 
1 1:202 2:202 3:200 
1 1:203 2:203 3:201 
1 1:181 2:177 3:165 
1 1:156 2:152 3:143 
1 1:109 2:103 3:103 
1 1:117 2:112 3:118 
1 1:166 2:161 3:165 
1 1:165 2:160 3:157 
1 1:161 2:156 3:150 
1 1:131 2:124 3:114 
1 1:108 2:102 3:88 
1 1:125 2:122 3:105 
1 1:129 2:128 3:107 
1 1:106 2:107 3:93 
1 1:146 2:147 3:133 
1 1:145 2:146 3:132 
1 1:121 2:122 3:108 
1 1:129 2:130 3:116 
1 1:134 2:136 3:122 
1 1:141 2:143 3:129 
1 1:132 2:134 3:120 
1 1:196 2:191 3:187 
1 1:195 2:190 3:184 
1 1:192 2:188 3:179 
1 1:187 2:185 3:173 
1 1:185 2:183 3:170 
1 1:186 2:184 3:171 
1 1:182 2:180 3:167 
1 1:176 2:176 3:164 
1 1:178 2:178 3:168 
0.9959053060438148 1:182 2:182 3:174 
1 1:185 2:184 3:179 
1 1:183 2:184 3:179 
1 1:180 2:181 3:176 
1 1:189 2:186 3:179 
1 1:189 2:186 3:179 
1 1:190 2:187 3:180 
1 1:191 2:188 3:181 
1 1:193 2:189 3:180 
1 1:194 2:190 3:181 
1 1:194 2:190 3:181 
1 1:194 2:190 3:181 
1 1:199 2:192 3:182 
1 1:200 2:193 3:183 
1 1:199 2:192 3:182 
1 1:197 2:189 3:178 
1 1:194 2:186 3:175 
1 1:192 2:184 3:173 
1 1:193 2:185 3:174 
1 1:195 2:187 3:176 
1 1:205 2:198 3:182 
1 1:195 2:189 3:175 
1 1:186 2:180 3:168 
1 1:187 2:180 3:172 
1 1:193 2:186 3:180 
1 1:193 2:188 3:184 
1 1:187 2:184 3:179 
1 1:191 2:188 3:183 
1 1:201 2:198 3:191 
1 1:214 2:211 3:202 
1 1:223 2:223 3:211 
1 1:200 2:200 3:198 
1 1:159 2:159 3:157 
1 1:150 2:150 3:148 
1 1:164 2:164 3:162 
1 1:156 2:156 3:154 
1 1:157 2:157 3:155 
1 1:153 2:153 3:151 
1 1:157 2:157 3:155 
1 1:158 2:158 3:156 
1 1:161 2:161 3:159 
1 1:176 2:176 3:174 
1 1:185 2:185 3:183 
1 1:193 2:193 3:191 
1 1:198 2:198 3:196 
1 1:174 2:177 3:166 
1 1:172 2:168 3:159 
1 1:130 2:125 3:121 
1 1:157 2:152 3:148 
1 1:137 2:130 3:120 
1 1:124 2:118 3:106 
1 1:124 2:121 3:102 
0.9869716627964097 1:136 2:135 3:114 
1 1:94 2:95 3:79 
1 1:132 2:133 3:117 
1 1:132 2:133 3:117 
1 1:125 2:126 3:110 
1 1:127 2:130 3:113 
1 1:150 2:153 3:136 
1 1:129 2:135 3:97 
0.9768228594401445 1:192 2:187 3:184 
1 1:197 2:192 3:188 
1 1:199 2:194 3:188 
1 1:197 2:193 3:184 
1 1:191 2:189 3:177 
1 1:188 2:186 3:173 
1 1:191 2:189 3:176 
1 1:189 2:187 3:174 
1 1:184 2:184 3:172 
1 1:182 2:182 3:174 
1 1:183 2:182 3:177 
1 1:183 2:184 3:179 
1 1:184 2:185 3:180 
1 1:189 2:186 3:179 
1 1:189 2:186 3:179 
1 1:189 2:186 3:179 
1 1:189 2:186 3:179 
1 1:189 2:186 3:179 
1 1:189 2:185 3:176 
1 1:189 2:185 3:176 
1 1:189 2:185 3:176 
1 1:192 2:185 3:175 
1 1:192 2:185 3:175 
1 1:193 2:186 3:176 
1 1:194 2:187 3:177 
1 1:196 2:188 3:177 
1 1:194 2:186 3:175 
1 1:191 2:183 3:172 
1 1:188 2:180 3:169 
1 1:201 2:195 3:181 
1 1:193 2:187 3:175 
1 1:188 2:181 3:173 
1 1:192 2:185 3:179 
1 1:195 2:190 3:186 
1 1:197 2:192 3:189 
1 1:188 2:183 3:180 
1 1:188 2:183 3:180 
1 1:192 2:189 3:184 
1 1:204 2:201 3:196 
1 1:221 2:218 3:211 
1 1:236 2:233 3:224 
1 1:229 2:229 3:227 
1 1:183 2:183 3:181 
1 1:152 2:152 3:150 
1 1:157 2:157 3:155 
1 1:161 2:161 3:159 
1 1:154 2:154 3:152 
1 1:154 2:154 3:152 
1 1:158 2:158 3:156 
1 1:159 2:159 3:157 
1 1:160 2:160 3:158 
1 1:160 2:160 3:158 
1 1:164 2:164 3:162 
1 1:185 2:185 3:183 
1 1:194 2:194 3:192 
1 1:188 2:191 3:180 
1 1:183 2:186 3:175 
1 1:193 2:195 3:184 
1 1:172 2:167 3:161 
1 1:119 2:114 3:111 
1 1:140 2:134 3:138 
1 1:163 2:158 3:154 
1 1:148 2:141 3:133 
1 1:140 2:134 3:122 
1 1:97 2:98 3:82 
1 1:124 2:125 3:109 
1 1:138 2:139 3:123 
1 1:148 2:149 3:133 
1 1:141 2:144 3:127 
1 1:135 2:138 3:121 
0.9690634204010629 1:114 2:117 3:100 
1 1:141 2:143 3:103 
1 1:183 2:178 3:175 
1 1:190 2:185 3:181 
1 1:195 2:190 3:184 
1 1:196 2:192 3:183 
1 1:192 2:190 3:178 
1 1:189 2:187 3:175 
1 1:189 2:187 3:174 
1 1:190 2:188 3:176 
1 1:188 2:188 3:176 
1 1:185 2:185 3:175 
1 1:183 2:183 3:175 
1 1:184 2:183 3:178 
1 1:188 2:189 3:184 
1 1:192 2:193 3:188 
1 1:192 2:189 3:182 
1 1:191 2:188 3:181 
1 1:189 2:186 3:179 
1 1:187 2:184 3:177 
1 1:185 2:182 3:175 
1 1:183 2:180 3:173 
1 1:183 2:179 3:170 
1 1:182 2:178 3:169 
1 1:184 2:180 3:171 
1 1:185 2:178 3:168 
1 1:188 2:181 3:171 
1 1:194 2:187 3:177 
1 1:200 2:193 3:183 
1 1:201 2:193 3:182 
1 1:196 2:188 3:177 
1 1:190 2:182 3:171 
1 1:193 2:186 3:170 
1 1:200 2:193 3:177 
1 1:202 2:196 3:182 
1 1:199 2:193 3:181 
1 1:193 2:186 3:176 
1 1:193 2:186 3:180 
1 1:196 2:191 3:187 
1 1:202 2:197 3:193 
1 1:200 2:195 3:192 
1 1:213 2:210 3:205 
1 1:226 2:223 3:218 
1 1:237 2:234 3:227 
1 1:244 2:241 3:232 
1 1:209 2:209 3:207 
1 1:158 2:158 3:156 
1 1:157 2:157 3:155 
1 1:156 2:156 3:154 
1 1:159 2:159 3:157 
1 1:161 2:161 3:159 
1 1:160 2:160 3:158 
1 1:157 2:157 3:155 
1 1:157 2:157 3:155 
1 1:181 2:181 3:179 
1 1:195 2:195 3:193 
1 1:198 2:201 3:192 
1 1:183 2:184 3:176 
1 1:184 2:185 3:177 
1 1:164 2:159 3:155 
1 1:114 2:109 3:106 
1 1:101 2:96 3:103 
1 1:156 2:150 3:152 
1 1:172 2:167 3:164 
1 1:162 2:155 3:149 
1 1:150 2:143 3:133 
1 1:135 2:132 3:117 
1 1:115 2:117 3:95 
1 1:113 2:114 3:96 
1 1:144 2:147 3:128 
0.9567223101969219 1:143 2:146 3:127 
1 1:152 2:155 3:136 
1 1:123 2:131 3:110 
1 1:179 2:174 3:170 
1 1:183 2:178 3:174 
1 1:188 2:183 3:177 
1 1:191 2:187 3:178 
1 1:189 2:187 3:175 
1 1:188 2:186 3:174 
1 1:186 2:184 3:172 
1 1:188 2:186 3:174 
1 1:187 2:187 3:177 
1 1:185 2:185 3:177 
1 1:181 2:181 3:173 
1 1:182 2:181 3:176 
1 1:185 2:186 3:181 
1 1:190 2:191 3:186 
1 1:192 2:191 3:186 
1 1:190 2:189 3:184 
1 1:190 2:187 3:180 
1 1:187 2:184 3:177 
1 1:186 2:183 3:176 
1 1:184 2:181 3:174 
1 1:185 2:181 3:172 
1 1:185 2:181 3:172 
1 1:185 2:181 3:172 
1 1:185 2:181 3:172 
1 1:189 2:182 3:172 
1 1:197 2:190 3:180 
1 1:205 2:198 3:188 
1 1:206 2:199 3:189 
1 1:200 2:192 3:181 
1 1:193 2:185 3:174 
1 1:187 2:180 3:164 
1 1:195 2:187 3:174 
1 1:202 2:196 3:182 
1 1:204 2:198 3:186 
1 1:199 2:192 3:182 
1 1:194 2:187 3:179 
1 1:193 2:188 3:182 
1 1:197 2:192 3:188 
1 1:206 2:201 3:197 
1 1:223 2:218 3:214 
1 1:237 2:234 3:229 
1 1:242 2:239 3:232 
1 1:241 2:238 3:231 
1 1:240 2:237 3:228 
1 1:234 2:234 3:224 
1 1:228 2:228 3:218 
1 1:163 2:163 3:161 
1 1:153 2:153 3:151 
1 1:159 2:159 3:157 
1 1:160 2:160 3:158 
1 1:159 2:159 3:157 
1 1:158 2:158 3:156 
1 1:160 2:160 3:158 
1 1:160 2:160 3:158 
1 1:156 2:156 3:154 
1 1:154 2:154 3:152 
1 1:161 2:161 3:159 
0.03103725423563353 1:178 2:178 3:176 
1 1:191 2:191 3:189 
1 1:200 2:203 3:194 
1 1:180 2:181 3:173 
1 1:191 2:192 3:184 
1 1:160 2:155 3:151 
0.9705847428281859 1:119 2:113 3:115 
1 1:160 2:155 3:152 
1 1:169 2:162 3:156 
1 1:160 2:153 3:143 
1 1:156 2:152 3:140 
1 1:121 2:124 3:105 
1 1:140 2:143 3:124 
1 1:152 2:155 3:136 
1 1:127 2:130 3:111 
0.987658560557839 1:121 2:124 3:105 
1 1:158 2:161 3:142 
1 1:125 2:128 3:109 
1 1:181 2:176 3:172 
1 1:182 2:177 3:171 
1 1:185 2:180 3:174 
1 1:188 2:184 3:175 
1 1:187 2:184 3:175 
1 1:185 2:183 3:171 
1 1:187 2:184 3:175 
1 1:188 2:185 3:176 
1 1:187 2:187 3:177 
1 1:184 2:184 3:176 
1 1:179 2:178 3:173 
1 1:177 2:176 3:171 
1 1:177 2:178 3:173 
1 1:188 2:187 3:182 
1 1:187 2:186 3:181 
1 1:186 2:185 3:180 
1 1:188 2:185 3:178 
1 1:188 2:185 3:178 
1 1:190 2:187 3:180 
1 1:192 2:189 3:182 
1 1:194 2:190 3:181 
1 1:192 2:188 3:179 
1 1:191 2:187 3:178 
1 1:192 2:188 3:179 
1 1:199 2:192 3:182 
1 1:205 2:198 3:188 
1 1:205 2:198 3:188 
1 1:200 2:193 3:183 
1 1:194 2:187 3:177 
1 1:192 2:184 3:171 
1 1:195 2:187 3:174 
1 1:201 2:195 3:183 
1 1:206 2:200 3:188 
1 1:202 2:195 3:185 
1 1:194 2:187 3:179 
1 1:187 2:182 3:176 
1 1:188 2:183 3:177 
1 1:225 2:220 3:216 
1 1:249 2:246 3:241 
1 1:244 2:241 3:234 
1 1:237 2:234 3:227 
1 1:238 2:235 3:228 
1 1:235 2:235 3:225 
1 1:147 2:147 3:145 
1 1:150 2:150 3:148 
1 1:160 2:160 3:158 
1 1:159 2:159 3:157 
1 1:154 2:154 3:152 
1 1:157 2:157 3:155 
1 1:158 2:158 3:156 
1 1:155 2:155 3:153 
1 1:153 2:153 3:151 
0.9877200620866157 1:158 2:158 3:156 
1 1:181 2:181 3:179 
1 1:198 2:201 3:194 
1 1:189 2:190 3:184 
1 1:173 2:174 3:168 
0.9881751979012303 1:182 2:183 3:175 
1 1:198 2:199 3:191 
1 1:185 2:180 3:176 
1 1:123 2:118 3:114 
0.9978505443855825 1:98 2:93 3:100 
1 1:125 2:119 3:119 
1 1:161 2:153 3:150 
1 1:170 2:163 3:155 
1 1:165 2:161 3:149 
1 1:140 2:137 3:122 
1 1:112 2:114 3:93 
1 1:158 2:161 3:140 
1 1:147 2:150 3:129 
1 1:136 2:139 3:118 
1 1:190 2:183 3:177 
1 1:183 2:178 3:172 
1 1:184 2:179 3:173 
1 1:188 2:184 3:175 
1 1:191 2:187 3:178 
1 1:189 2:186 3:177 
1 1:187 2:184 3:175 
1 1:191 2:188 3:179 
1 1:192 2:189 3:180 
1 1:189 2:189 3:181 
1 1:187 2:187 3:179 
1 1:183 2:182 3:177 
1 1:179 2:178 3:173 
1 1:176 2:177 3:172 
1 1:183 2:182 3:177 
1 1:182 2:181 3:176 
1 1:184 2:183 3:178 
1 1:189 2:186 3:179 
1 1:192 2:189 3:182 
1 1:194 2:191 3:184 
1 1:194 2:190 3:181 
1 1:192 2:188 3:179 
1 1:193 2:189 3:180 
1 1:196 2:192 3:183 
1 1:203 2:196 3:186 
1 1:201 2:194 3:184 
1 1:198 2:191 3:181 
1 1:199 2:191 3:180 
1 1:196 2:188 3:177 
1 1:196 2:190 3:178 
1 1:203 2:196 3:186 
1 1:204 2:197 3:187 
1 1:197 2:190 3:182 
1 1:188 2:184 3:175 
1 1:186 2:181 3:175 
1 1:229 2:224 3:218 
1 1:247 2:244 3:237 
1 1:241 2:238 3:231 
1 1:237 2:234 3:227 
1 1:241 2:238 3:231 
1 1:241 2:241 3:233 
1 1:237 2:237 3:229 
1 1:212 2:212 3:210 
1 1:155 2:155 3:153 
1 1:162 2:162 3:160 
1 1:157 2:157 3:155 
1 1:154 2:154 3:152 
1 1:157 2:157 3:155 
1 1:159 2:159 3:157 
1 1:155 2:155 3:153 
1 1:157 2:157 3:155 
1 1:163 2:163 3:161 
1 1:169 2:169 3:167 
1 1:196 2:198 3:193 
1 1:199 2:201 3:196 
1 1:192 2:193 3:187 
1 1:181 2:182 3:176 
1 1:186 2:187 3:181 
1 1:166 2:161 3:155 
1 1:109 2:104 3:111 
1 1:97 2:92 3:98 
1 1:91 2:85 3:87 
1 1:137 2:129 3:127 
1 1:173 2:166 3:160 
1 1:165 2:161 3:150 
1 1:142 2:138 3:126 
1 1:121 2:126 3:104 
1 1:153 2:156 3:135 
1 1:153 2:156 3:135 
1 1:158 2:161 3:140 
1 1:161 2:164 3:143 
1 1:190 2:183 3:175 
1 1:186 2:179 3:171 
1 1:182 2:178 3:169 
1 1:185 2:181 3:172 
1 1:191 2:187 3:178 
1 1:195 2:191 3:182 
1 1:194 2:191 3:182 
1 1:191 2:188 3:181 
1 1:195 2:192 3:185 
1 1:195 2:192 3:185 
1 1:193 2:193 3:185 
1 1:192 2:191 3:186 
1 1:189 2:188 3:183 
1 1:186 2:185 3:180 
1 1:179 2:178 3:173 
1 1:177 2:176 3:171 
1 1:177 2:176 3:171 
1 1:180 2:179 3:174 
1 1:185 2:182 3:175 
1 1:187 2:184 3:177 
1 1:189 2:185 3:176 
1 1:190 2:186 3:177 
1 1:193 2:189 3:180 
1 1:197 2:193 3:184 
1 1:203 2:196 3:186 
1 1:203 2:196 3:186 
1 1:203 2:195 3:184 
1 1:194 2:186 3:175 
1 1:190 2:184 3:172 
1 1:199 2:192 3:182 
1 1:205 2:198 3:188 
1 1:201 2:194 3:184 
1 1:192 2:188 3:179 
1 1:190 2:186 3:177 
1 1:222 2:218 3:209 
1 1:242 2:239 3:232 
1 1:239 2:236 3:229 
1 1:245 2:242 3:235 
1 1:230 2:230 3:222 
1 1:223 2:223 3:221 
1 1:154 2:154 3:152 
1 1:157 2:157 3:155 
1 1:160 2:160 3:158 
1 1:162 2:162 3:160 
1 1:162 2:162 3:160 
1 1:159 2:159 3:157 
1 1:160 2:160 3:158 
1 1:162 2:162 3:160 
1 1:205 2:206 3:201 
1 1:210 2:211 3:206 
1 1:185 2:186 3:181 
1 1:180 2:181 3:175 
1 1:198 2:197 3:192 
1 1:194 2:190 3:181 
1 1:99 2:93 3:95 
1 1:117 2:109 3:107 
1 1:169 2:161 3:158 
1 1:165 2:161 3:152 
1 1:165 2:161 3:150 
1 1:124 2:122 3:109 
1 1:118 2:123 3:101 
1 1:148 2:151 3:130 
1 1:134 2:137 3:116 
1 1:196 2:189 3:179 
1 1:198 2:191 3:181 
1 1:184 2:180 3:169 
1 1:168 2:164 3:155 
1 1:167 2:163 3:154 
1 1:182 2:178 3:169 
1 1:188 2:185 3:178 
1 1:182 2:179 3:172 
1 1:188 2:185 3:178 
1 1:189 2:186 3:181 
1 1:187 2:186 3:181 
1 1:186 2:185 3:180 
1 1:188 2:187 3:182 
1 1:191 2:190 3:185 
1 1:187 2:188 3:183 
1 1:182 2:183 3:178 
0.02336953365334593 1:181 2:182 3:177 
1 1:184 2:185 3:180 
1 1:190 2:189 3:184 
1 1:183 2:182 3:177 
1 1:191 2:188 3:181 
1 1:184 2:181 3:174 
1 1:184 2:181 3:174 
1 1:185 2:181 3:172 
1 1:186 2:182 3:173 
1 1:190 2:186 3:177 
1 1:195 2:191 3:182 
1 1:200 2:196 3:187 
1 1:203 2:199 3:190 
1 1:205 2:196 3:187 
1 1:198 2:189 3:180 
1 1:191 2:184 3:174 
1 1:193 2:186 3:176 
1 1:200 2:193 3:183 
1 1:203 2:196 3:186 
1 1:195 2:191 3:180 
1 1:188 2:184 3:175 
1 1:183 2:179 3:170 
1 1:214 2:210 3:201 
1 1:240 2:237 3:230 
1 1:243 2:240 3:233 
1 1:238 2:235 3:228 
1 1:239 2:236 3:231 
1 1:238 2:237 3:232 
1 1:241 2:241 3:239 
1 1:207 2:207 3:205 
1 1:153 2:153 3:151 
1 1:155 2:155 3:153 
1 1:164 2:164 3:162 
1 1:162 2:162 3:160 
1 1:156 2:156 3:154 
1 1:156 2:156 3:154 
1 1:162 2:162 3:160 
1 1:163 2:163 3:161 
1 1:160 2:160 3:158 
1 1:179 2:181 3:178 
1 1:200 2:200 3:198 
1 1:209 2:209 3:207 
1 1:203 2:204 3:199 
1 1:193 2:194 3:189 
1 1:189 2:188 3:183 
1 1:189 2:189 3:181 
1 1:130 2:126 3:127 
1 1:94 2:88 3:90 
1 1:96 2:90 3:90 
1 1:157 2:152 3:146 
1 1:175 2:171 3:162 
1 1:151 2:149 3:137 
0.9990655416107947 1:95 2:98 3:77 
0.9879000473742863 1:168 2:170 3:149 
1 1:193 2:187 3:175 
1 1:199 2:193 3:181 
1 1:193 2:189 3:177 
1 1:179 2:175 3:164 
1 1:172 2:168 3:159 
1 1:178 2:174 3:165 
1 1:186 2:183 3:176 
1 1:188 2:185 3:180 
1 1:191 2:188 3:183 
1 1:193 2:190 3:185 
1 1:191 2:190 3:186 
1 1:187 2:186 3:182 
1 1:186 2:185 3:181 
1 1:187 2:186 3:182 
1 1:184 2:185 3:180 
1 1:179 2:180 3:175 
1 1:190 2:191 3:186 
1 1:183 2:182 3:177 
1 1:187 2:186 3:181 
1 1:195 2:194 3:189 
1 1:188 2:185 3:178 
1 1:187 2:184 3:177 
1 1:185 2:182 3:175 
1 1:186 2:182 3:173 
1 1:189 2:185 3:176 
1 1:193 2:189 3:180 
1 1:197 2:193 3:184 
1 1:200 2:196 3:187 
1 1:205 2:196 3:187 
1 1:192 2:185 3:175 
1 1:193 2:186 3:176 
1 1:198 2:191 3:181 
1 1:198 2:194 3:183 
1 1:194 2:190 3:179 
1 1:181 2:177 3:166 
1 1:201 2:197 3:188 
1 1:226 2:223 3:214 
1 1:243 2:240 3:233 
1 1:207 2:207 3:205 
1 1:192 2:192 3:190 
1 1:171 2:171 3:169 
1 1:161 2:161 3:159 
1 1:161 2:161 3:159 
1 1:157 2:157 3:155 
1 1:164 2:164 3:162 
1 1:159 2:159 3:157 
1 1:155 2:155 3:153 
1 1:157 2:157 3:155 
1 1:157 2:157 3:155 
1 1:162 2:164 3:163 
1 1:201 2:201 3:201 
1 1:205 2:205 3:203 
1 1:199 2:200 3:195 
1 1:190 2:189 3:185 
1 1:206 2:206 3:198 
1 1:173 2:169 3:168 
1 1:119 2:113 3:113 
1 1:142 2:137 3:133 
1 1:169 2:164 3:158 
1 1:159 2:156 3:147 
1 1:127 2:127 3:115 
1 1:123 2:135 3:111 
1 1:151 2:152 3:134 
1 1:190 2:184 3:170 
1 1:198 2:192 3:178 
1 1:200 2:196 3:184 
1 1:192 2:188 3:176 
1 1:178 2:174 3:163 
1 1:174 2:169 3:163 
1 1:182 2:179 3:172 
1 1:193 2:190 3:185 
1 1:195 2:191 3:188 
1 1:193 2:192 3:188 
1 1:187 2:186 3:182 
1 1:180 2:179 3:175 
1 1:184 2:183 3:178 
1 1:189 2:188 3:183 
1 1:196 2:195 3:190 
1 1:191 2:190 3:185 
1 1:191 2:188 3:181 
1 1:187 2:184 3:177 
1 1:188 2:185 3:178 
1 1:192 2:188 3:179 
1 1:196 2:192 3:183 
1 1:199 2:195 3:186 
1 1:202 2:193 3:186 
1 1:194 2:187 3:177 
1 1:193 2:186 3:176 
1 1:195 2:188 3:178 
1 1:198 2:192 3:180 
1 1:197 2:193 3:181 
1 1:197 2:193 3:181 
1 1:180 2:176 3:165 
1 1:186 2:182 3:171 
1 1:207 2:204 3:195 
1 1:237 2:234 3:227 
1 1:249 2:246 3:241 
1 1:242 2:239 3:234 
1 1:240 2:239 3:235 
1 1:186 2:186 3:184 
1 1:183 2:183 3:181 
1 1:171 2:171 3:169 
1 1:161 2:161 3:159 
1 1:159 2:159 3:157 
1 1:160 2:160 3:158 
1 1:161 2:161 3:159 
1 1:163 2:164 3:166 
0.9858864534743519 1:205 2:205 3:203 
1 1:194 2:193 3:189 
1 1:181 2:180 3:175 
1 1:190 2:190 3:182 
1 1:157 2:152 3:148 
1 1:157 2:152 3:148 
1 1:171 2:168 3:161 
1 1:154 2:154 3:144 
1 1:136 2:139 3:122 
1 1:152 2:155 3:138 
1 1:147 2:150 3:133 
1 1:124 2:125 3:109 
1 1:136 2:137 3:121 
1 1:188 2:182 3:166 
1 1:194 2:188 3:172 
1 1:199 2:196 3:181 
1 1:197 2:193 3:181 
1 1:185 2:181 3:170 
1 1:175 2:170 3:164 
1 1:178 2:175 3:170 
1 1:190 2:186 3:183 
1 1:187 2:183 3:180 
1 1:194 2:190 3:189 
1 1:177 2:176 3:172 
1 1:179 2:180 3:175 
1 1:182 2:183 3:178 
1 1:184 2:185 3:180 
1 1:187 2:186 3:181 
1 1:189 2:188 3:183 
1 1:192 2:191 3:186 
1 1:190 2:189 3:184 
1 1:188 2:185 3:178 
1 1:188 2:185 3:178 
1 1:191 2:188 3:181 
1 1:196 2:192 3:183 
1 1:199 2:195 3:186 
1 1:197 2:188 3:181 
1 1:197 2:190 3:182 
1 1:196 2:189 3:179 
1 1:195 2:188 3:178 
1 1:194 2:188 3:176 
1 1:192 2:188 3:176 
1 1:192 2:188 3:176 
1 1:186 2:182 3:170 
1 1:183 2:179 3:168 
1 1:193 2:190 3:181 
1 1:220 2:217 3:210 
1 1:243 2:240 3:235 
1 1:246 2:242 3:239 
0.9545251983104663 1:228 2:227 3:225 
1 1:206 2:206 3:204 
1 1:188 2:188 3:186 
1 1:164 2:164 3:162 
0.998623525885841 1:163 2:163 3:161 
0.9820082096964171 1:164 2:164 3:162 
1 1:197 2:197 3:197 
1 1:200 2:199 3:195 
1 1:190 2:189 3:184 
1 1:179 2:178 3:173 
1 1:185 2:185 3:177 
1 1:182 2:178 3:169 
1 1:147 2:142 3:136 
1 1:101 2:93 3:91 
1 1:126 2:121 3:118 
1 1:166 2:162 3:159 
1 1:175 2:174 3:169 
1 1:144 2:147 3:138 
1 1:146 2:148 3:134 
1 1:167 2:168 3:154 
1 1:147 2:148 3:134 
1 1:124 2:125 3:111 
1 1:131 2:132 3:118 
1 1:136 2:149 3:123 
1 1:140 2:144 3:109 
1 1:188 2:183 3:164 
1 1:189 2:184 3:165 
1 1:190 2:187 3:170 
1 1:194 2:190 3:178 
1 1:190 2:186 3:175 
1 1:182 2:177 3:171 
1 1:178 2:175 3:170 
1 1:180 2:176 3:173 
1 1:192 2:188 3:187 
1 1:189 2:188 3:186 
1 1:180 2:179 3:175 
1 1:186 2:187 3:181 
1 1:174 2:176 3:173 
1 1:188 2:189 3:184 
1 1:186 2:185 3:180 
1 1:184 2:183 3:178 
1 1:185 2:182 3:175 
1 1:185 2:182 3:175 
1 1:186 2:183 3:176 
1 1:192 2:189 3:182 
1 1:195 2:192 3:185 
1 1:195 2:186 3:181 
1 1:199 2:190 3:185 
1 1:203 2:196 3:188 
1 1:203 2:196 3:186 
1 1:200 2:194 3:182 
1 1:195 2:189 3:177 
1 1:189 2:186 3:171 
1 1:187 2:184 3:169 
1 1:197 2:193 3:181 
1 1:192 2:188 3:176 
1 1:188 2:186 3:174 
1 1:199 2:196 3:189 
1 1:223 2:220 3:215 
1 1:200 2:199 3:197 
1 1:186 2:186 3:184 
1 1:203 2:202 3:200 
1 1:204 2:203 3:199 
1 1:190 2:189 3:184 
1 1:183 2:183 3:175 
1 1:186 2:183 3:174 
1 1:177 2:173 3:162 
1 1:126 2:121 3:115 
1 1:103 2:95 3:92 
1 1:140 2:136 3:135 
1 1:175 2:174 3:170 
1 1:143 2:148 3:141 
1 1:122 2:124 3:111 
1 1:156 2:156 3:144 
1 1:158 2:158 3:146 
1 1:135 2:135 3:123 
1 1:125 2:125 3:113 
1 1:187 2:182 3:163 
1 1:183 2:180 3:163 
1 1:187 2:184 3:169 
1 1:192 2:188 3:177 
1 1:192 2:187 3:181 
1 1:182 2:179 3:174 
1 1:174 2:170 3:167 
1 1:186 2:185 3:181 
1 1:190 2:191 3:185 
1 1:186 2:188 3:185 
1 1:191 2:192 3:187 
1 1:187 2:188 3:183 
1 1:179 2:178 3:173 
1 1:183 2:180 3:173 
1 1:185 2:182 3:175 
1 1:187 2:184 3:177 
1 1:190 2:187 3:180 
1 1:201 2:192 3:187 
1 1:206 2:199 3:191 
1 1:208 2:201 3:191 
1 1:206 2:200 3:188 
1 1:199 2:193 3:181 
1 1:191 2:188 3:173 
1 1:187 2:184 3:169 
1 1:203 2:200 3:185 
1 1:200 2:196 3:184 
1 1:190 2:188 3:176 
1 1:187 2:184 3:175 
1 1:200 2:197 3:192 
1 1:213 2:209 3:206 
1 1:199 2:198 3:196 
0.9674684770326123 1:183 2:183 3:181 
1 1:189 2:189 3:187 
1 1:156 2:156 3:154 
1 1:209 2:208 3:204 
1 1:200 2:199 3:194 
1 1:184 2:184 3:176 
1 1:182 2:179 3:170 
1 1:167 2:163 3:154 
1 1:122 2:115 3:109 
1 1:109 2:105 3:106 
1 1:150 2:148 3:149 
1 1:129 2:136 3:129 
1 1:130 2:143 3:117 
1 1:123 2:123 3:113 
1 1:143 2:143 3:133 
1 1:135 2:135 3:125 
1 1:122 2:119 3:110 
1 1:183 2:180 3:163 
1 1:183 2:180 3:165 
1 1:194 2:190 3:179 
1 1:202 2:197 3:191 
1 1:191 2:188 3:183 
1 1:174 2:170 3:169 
1 1:174 2:170 3:169 
1 1:185 2:184 3:182 
1 1:186 2:187 3:181 
1 1:186 2:187 3:181 
1 1:187 2:189 3:186 
1 1:184 2:186 3:183 
1 1:187 2:188 3:183 
1 1:182 2:183 3:178 
1 1:185 2:184 3:179 
0.9841778042355582 1:194 2:185 3:180 
1 1:201 2:194 3:186 
1 1:205 2:198 3:188 
1 1:205 2:199 3:187 
1 1:201 2:195 3:183 
1 1:193 2:190 3:175 
1 1:188 2:185 3:170 
1 1:198 2:195 3:180 
1 1:198 2:194 3:182 
1 1:195 2:193 3:181 
1 1:192 2:189 3:180 
1 1:190 2:186 3:183 
1 1:202 2:201 3:197 
1 1:188 2:188 3:180 
1 1:182 2:179 3:170 
1 1:187 2:185 3:173 
1 1:152 2:145 3:139 
1 1:111 2:109 3:110 
1 1:149 2:151 3:150 
1 1:127 2:133 3:129 
1 1:118 2:118 3:108 
1 1:137 2:134 3:125 
1 1:131 2:128 3:119 
1 1:144 2:154 3:130 
1 1:193 2:188 3:168 
1 1:194 2:189 3:169 
1 1:186 2:183 3:164 
1 1:183 2:180 3:165 
1 1:194 2:190 3:179 
1 1:207 2:202 3:196 
1 1:197 2:194 3:189 
1 1:167 2:163 3:164 
1 1:182 2:181 3:177 
1 1:181 2:183 3:180 
1 1:188 2:190 3:187 
1 1:181 2:183 3:180 
1 1:182 2:183 3:178 
1 1:185 2:184 3:179 
1 1:191 2:190 3:185 
1 1:194 2:191 3:184 
1 1:193 2:190 3:183 
1 1:191 2:188 3:181 
1 1:191 2:182 3:177 
1 1:194 2:187 3:179 
1 1:199 2:192 3:182 
1 1:201 2:195 3:183 
1 1:200 2:194 3:180 
1 1:193 2:190 3:175 
1 1:189 2:186 3:171 
1 1:190 2:187 3:172 
1 1:191 2:187 3:175 
1 1:198 2:196 3:184 
1 1:202 2:199 3:190 
1 1:192 2:189 3:184 
1 1:178 2:174 3:171 
1 1:171 2:172 3:177 
1 1:192 2:191 3:187 
1 1:201 2:201 3:193 
1 1:189 2:186 3:177 
1 1:184 2:182 3:170 
1 1:188 2:186 3:173 
1 1:187 2:180 3:174 
1 1:146 2:138 3:136 
1 1:91 2:85 3:85 
0.9971042919946392 1:94 2:88 3:90 
1 1:131 2:132 3:134 
1 1:132 2:138 3:136 
1 1:101 2:102 3:94 
1 1:104 2:104 3:96 
1 1:139 2:136 3:129 
1 1:147 2:144 3:137 
1 1:193 2:192 3:174 
1 1:185 2:184 3:166 
1 1:197 2:195 3:180 
1 1:181 2:179 3:166 
1 1:178 2:176 3:164 
1 1:179 2:177 3:165 
1 1:186 2:183 3:174 
1 1:189 2:186 3:177 
1 1:185 2:182 3:173 
1 1:180 2:177 3:170 
1 1:178 2:175 3:168 
1 1:182 2:179 3:170 
1 1:184 2:181 3:172 
1 1:185 2:182 3:173 
1 1:183 2:180 3:171 
1 1:179 2:176 3:167 
1 1:176 2:173 3:164 
1 1:178 2:175 3:166 
1 1:180 2:177 3:168 
1 1:192 2:189 3:180 
1 1:193 2:190 3:181 
1 1:195 2:192 3:183 
1 1:197 2:194 3:185 
1 1:197 2:194 3:185 
1 1:195 2:192 3:183 
1 1:193 2:190 3:181 
1 1:191 2:188 3:179 
1 1:191 2:188 3:179 
1 1:189 2:186 3:177 
1 1:188 2:185 3:176 
1 1:192 2:189 3:180 
1 1:198 2:196 3:184 
1 1:200 2:198 3:186 
1 1:196 2:194 3:182 
1 1:192 2:190 3:178 
1 1:188 2:186 3:173 
1 1:194 2:192 3:179 
1 1:201 2:199 3:186 
1 1:202 2:200 3:185 
1 1:183 2:181 3:166 
1 1:195 2:189 3:177 
1 1:188 2:182 3:170 
1 1:184 2:180 3:168 
1 1:189 2:185 3:174 
1 1:195 2:191 3:180 
1 1:195 2:191 3:182 
1 1:192 2:189 3:180 
1 1:191 2:188 3:181 
1 1:193 2:190 3:183 
1 1:183 2:180 3:175 
1 1:175 2:174 3:169 
1 1:158 2:157 3:153 
1 1:147 2:146 3:142 
1 1:167 2:166 3:164 
1 1:155 2:155 3:153 
1 1:161 2:161 3:161 
1 1:203 2:203 3:201 
1 1:199 2:200 3:195 
1 1:198 2:199 3:194 
1 1:184 2:185 3:179 
1 1:169 2:170 3:164 
1 1:179 2:175 3:164 
1 1:126 2:122 3:113 
1 1:134 2:128 3:128 
1 1:143 2:137 3:137 
1 1:118 2:112 3:114 
1 1:97 2:95 3:83 
0.9927683178509215 1:132 2:131 3:110 
1 1:143 2:145 3:105 
1 1:156 2:158 3:118 
1 1:193 2:192 3:174 
1 1:187 2:186 3:168 
1 1:195 2:193 3:180 
1 1:182 2:180 3:168 
1 1:181 2:179 3:167 
1 1:185 2:182 3:173 
1 1:188 2:185 3:176 
1 1:186 2:183 3:174 
1 1:185 2:182 3:175 
1 1:187 2:184 3:177 
1 1:189 2:186 3:177 
1 1:188 2:185 3:176 
1 1:187 2:184 3:175 
1 1:184 2:181 3:172 
1 1:179 2:176 3:167 
1 1:175 2:172 3:163 
1 1:174 2:171 3:162 
1 1:174 2:171 3:162 
1 1:187 2:184 3:175 
1 1:188 2:185 3:176 
1 1:190 2:187 3:178 
1 1:192 2:189 3:180 
1 1:194 2:191 3:182 
1 1:194 2:191 3:182 
1 1:195 2:192 3:183 
1 1:195 2:192 3:183 
1 1:195 2:192 3:183 
1 1:192 2:189 3:180 
1 1:191 2:188 3:179 
1 1:194 2:191 3:182 
1 1:199 2:197 3:185 
1 1:201 2:199 3:187 
1 1:199 2:197 3:185 
1 1:195 2:193 3:181 
1 1:186 2:184 3:171 
1 1:188 2:186 3:173 
1 1:197 2:195 3:180 
1 1:194 2:192 3:177 
1 1:186 2:184 3:169 
1 1:180 2:178 3:163 
1 1:185 2:179 3:167 
1 1:188 2:182 3:170 
1 1:192 2:188 3:176 
1 1:198 2:194 3:183 
1 1:197 2:193 3:182 
1 1:190 2:186 3:177 
1 1:187 2:184 3:175 
1 1:182 2:179 3:172 
1 1:205 2:202 3:197 
1 1:166 2:165 3:161 
1 1:144 2:143 3:141 
1 1:155 2:155 3:153 
1 1:170 2:170 3:172 
1 1:158 2:158 3:158 
1 1:165 2:165 3:165 
1 1:195 2:196 3:191 
1 1:199 2:200 3:195 
1 1:192 2:193 3:187 
1 1:182 2:183 3:177 
1 1:189 2:190 3:184 
1 1:140 2:136 3:127 
1 1:101 2:96 3:90 
1 1:97 2:92 3:88 
1 1:141 2:135 3:135 
1 1:148 2:142 3:144 
1 1:136 2:130 3:132 
1 1:129 2:124 3:121 
1 1:119 2:114 3:110 
1 1:101 2:99 3:87 
1 1:106 2:105 3:87 
1 1:131 2:143 3:95 
1 1:133 2:145 3:125 
1 1:129 2:140 3:123 
1 1:195 2:192 3:175 
1 1:196 2:193 3:176 
1 1:194 2:191 3:174 
1 1:190 2:187 3:170 
1 1:189 2:186 3:169 
1 1:193 2:190 3:175 
1 1:195 2:192 3:177 
1 1:194 2:190 3:178 
1 1:196 2:192 3:180 
1 1:189 2:185 3:174 
1 1:184 2:180 3:169 
1 1:185 2:181 3:172 
1 1:187 2:183 3:174 
1 1:188 2:184 3:175 
1 1:191 2:187 3:178 
1 1:196 2:192 3:183 
1 1:192 2:189 3:182 
1 1:190 2:187 3:180 
1 1:187 2:184 3:177 
1 1:185 2:182 3:175 
1 1:184 2:181 3:174 
1 1:182 2:179 3:172 
1 1:179 2:176 3:169 
1 1:177 2:174 3:167 
1 1:184 2:181 3:174 
1 1:184 2:181 3:174 
1 1:185 2:182 3:175 
1 1:187 2:184 3:177 
1 1:190 2:187 3:180 
1 1:191 2:188 3:181 
1 1:192 2:189 3:182 
1 1:194 2:191 3:182 
1 1:191 2:188 3:179 
1 1:189 2:186 3:177 
1 1:191 2:188 3:179 
1 1:195 2:192 3:183 
1 1:198 2:196 3:184 
1 1:197 2:195 3:183 
1 1:195 2:193 3:181 
1 1:185 2:183 3:170 
1 1:183 2:181 3:168 
1 1:191 2:189 3:176 
1 1:180 2:178 3:163 
1 1:180 2:174 3:162 
1 1:187 2:181 3:169 
1 1:194 2:190 3:178 
1 1:197 2:193 3:182 
1 1:190 2:186 3:175 
1 1:184 2:180 3:171 
1 1:188 2:185 3:176 
1 1:197 2:194 3:187 
1 1:207 2:204 3:197 
1 1:226 2:223 3:218 
1 1:241 2:240 3:235 
1 1:206 2:205 3:201 
1 1:160 2:159 3:157 
1 1:146 2:146 3:144 
1 1:155 2:155 3:155 
1 1:156 2:156 3:156 
1 1:191 2:192 3:187 
1 1:197 2:198 3:193 
1 1:196 2:197 3:191 
1 1:194 2:195 3:189 
1 1:189 2:190 3:184 
1 1:189 2:190 3:184 
1 1:162 2:158 3:149 
1 1:131 2:126 3:120 
0.9998646520560631 1:79 2:74 3:71 
1 1:118 2:112 3:112 
1 1:148 2:142 3:142 
1 1:146 2:140 3:140 
1 1:130 2:125 3:122 
1 1:127 2:122 3:118 
1 1:121 2:118 3:111 
1 1:116 2:114 3:102 
1 1:117 2:115 3:100 
1 1:128 2:128 3:94 
0.9832763391986932 1:128 2:128 3:94 
1 1:196 2:193 3:176 
0.9928661896261399 1:194 2:191 3:174 
1 1:192 2:189 3:172 
1 1:192 2:189 3:174 
1 1:194 2:191 3:176 
1 1:194 2:191 3:176 
1 1:192 2:188 3:176 
1 1:198 2:194 3:182 
1 1:191 2:187 3:176 
1 1:186 2:182 3:171 
1 1:186 2:182 3:171 
1 1:186 2:182 3:173 
1 1:185 2:181 3:172 
1 1:188 2:184 3:175 
1 1:194 2:190 3:181 
1 1:188 2:185 3:180 
1 1:185 2:182 3:177 
1 1:184 2:181 3:176 
1 1:186 2:183 3:178 
1 1:190 2:187 3:182 
1 1:192 2:189 3:184 
1 1:188 2:185 3:180 
1 1:183 2:180 3:175 
1 1:184 2:181 3:176 
1 1:186 2:183 3:178 
1 1:187 2:184 3:179 
1 1:187 2:184 3:179 
1 1:187 2:184 3:179 
1 1:186 2:183 3:178 
1 1:185 2:182 3:177 
1 1:188 2:185 3:176 
1 1:186 2:183 3:174 
1 1:184 2:181 3:172 
1 1:184 2:181 3:172 
1 1:187 2:184 3:175 
1 1:190 2:187 3:178 
1 1:191 2:189 3:177 
1 1:190 2:188 3:176 
1 1:188 2:186 3:174 
1 1:183 2:181 3:168 
1 1:194 2:192 3:179 
1 1:197 2:195 3:180 
1 1:186 2:184 3:169 
1 1:185 2:179 3:167 
1 1:186 2:180 3:168 
1 1:186 2:182 3:170 
1 1:186 2:182 3:171 
1 1:184 2:180 3:169 
1 1:188 2:184 3:175 
1 1:202 2:199 3:190 
1 1:218 2:215 3:208 
0.9994774244490373 1:239 2:236 3:229 
1 1:239 2:236 3:231 
1 1:229 2:228 3:223 
1 1:155 2:155 3:153 
0.9965214804777112 1:161 2:161 3:161 
1 1:155 2:155 3:155 
1 1:150 2:150 3:148 
1 1:190 2:191 3:186 
1 1:193 2:194 3:189 
1 1:199 2:200 3:194 
1 1:187 2:188 3:182 
1 1:185 2:186 3:180 
1 1:208 2:209 3:203 
1 1:165 2:160 3:154 
1 1:116 2:110 3:110 
1 1:149 2:143 3:143 
1 1:132 2:127 3:124 
1 1:129 2:124 3:120 
1 1:118 2:115 3:108 
1 1:121 2:119 3:104 
1 1:99 2:108 3:89 
1 1:198 2:195 3:178 
1 1:195 2:192 3:175 
1 1:193 2:190 3:173 
1 1:194 2:191 3:176 
1 1:195 2:192 3:177 
1 1:195 2:192 3:177 
1 1:193 2:190 3:175 
1 1:192 2:188 3:176 
1 1:195 2:191 3:179 
1 1:191 2:187 3:176 
1 1:188 2:184 3:173 
1 1:188 2:184 3:173 
1 1:185 2:181 3:170 
1 1:181 2:177 3:168 
1 1:181 2:177 3:168 
1 1:185 2:181 3:172 
1 1:181 2:178 3:173 
1 1:179 2:176 3:171 
1 1:179 2:176 3:171 
1 1:184 2:181 3:176 
1 1:190 2:187 3:182 
1 1:195 2:192 3:187 
1 1:195 2:192 3:187 
1 1:193 2:190 3:185 
1 1:183 2:180 3:175 
1 1:185 2:182 3:177 
1 1:189 2:186 3:181 
1 1:192 2:189 3:184 
1 1:188 2:185 3:180 
1 1:186 2:183 3:178 
1 1:184 2:181 3:174 
1 1:182 2:179 3:172 
1 1:181 2:178 3:169 
1 1:181 2:178 3:169 
1 1:183 2:180 3:171 
1 1:185 2:182 3:173 
1 1:186 2:184 3:172 
1 1:186 2:184 3:172 
1 1:192 2:190 3:178 
1 1:190 2:188 3:176 
1 1:188 2:186 3:173 
1 1:191 2:189 3:176 
1 1:194 2:192 3:177 
1 1:193 2:187 3:175 
1 1:186 2:180 3:168 
1 1:180 2:176 3:164 
1 1:186 2:182 3:171 
1 1:196 2:192 3:181 
1 1:209 2:205 3:196 
1 1:224 2:221 3:212 
1 1:236 2:233 3:226 
1 1:238 2:235 3:228 
1 1:246 2:243 3:238 
1 1:234 2:233 3:228 
1 1:157 2:157 3:157 
0.9959810906974909 1:158 2:158 3:158 
1 1:168 2:168 3:168 
1 1:147 2:147 3:145 
1 1:176 2:177 3:172 
1 1:194 2:195 3:190 
1 1:204 2:205 3:200 
1 1:189 2:190 3:184 
1 1:182 2:183 3:177 
1 1:202 2:203 3:197 
1 1:153 2:148 3:142 
1 1:122 2:117 3:113 
1 1:126 2:121 3:117 
1 1:130 2:125 3:122 
1 1:95 2:90 3:87 
1 1:141 2:136 3:133 
1 1:156 2:151 3:148 
1 1:146 2:141 3:137 
1 1:116 2:113 3:106 
1 1:101 2:98 3:89 
1 1:115 2:113 3:100 
0.9916963391478284 1:144 2:154 3:130 
1 1:198 2:195 3:180 
1 1:193 2:190 3:175 
1 1:191 2:188 3:173 
1 1:195 2:192 3:177 
1 1:198 2:195 3:180 
1 1:196 2:193 3:178 
1 1:193 2:189 3:177 
1 1:192 2:188 3:176 
1 1:191 2:187 3:175 
1 1:189 2:185 3:173 
1 1:190 2:186 3:175 
1 1:191 2:187 3:176 
1 1:187 2:183 3:172 
1 1:180 2:176 3:165 
1 1:177 2:173 3:162 
1 1:180 2:176 3:165 
1 1:179 2:175 3:172 
1 1:179 2:175 3:172 
1 1:179 2:175 3:172 
1 1:182 2:178 3:175 
1 1:185 2:181 3:178 
1 1:187 2:183 3:180 
1 1:188 2:184 3:181 
1 1:181 2:177 3:174 
1 1:184 2:180 3:177 
1 1:188 2:184 3:181 
1 1:194 2:190 3:187 
1 1:193 2:189 3:186 
1 1:185 2:182 3:175 
1 1:185 2:182 3:175 
1 1:184 2:181 3:174 
1 1:185 2:182 3:173 
1 1:185 2:182 3:173 
1 1:186 2:183 3:174 
1 1:187 2:184 3:175 
1 1:187 2:185 3:173 
1 1:194 2:192 3:180 
1 1:195 2:193 3:181 
1 1:193 2:191 3:179 
1 1:195 2:193 3:180 
1 1:203 2:201 3:188 
1 1:197 2:191 3:179 
1 1:188 2:182 3:170 
1 1:184 2:180 3:168 
1 1:200 2:196 3:185 
1 1:221 2:217 3:206 
1 1:235 2:231 3:222 
1 1:235 2:232 3:225 
1 1:244 2:241 3:236 
1 1:150 2:150 3:150 
1 1:155 2:155 3:155 
1 1:155 2:155 3:153 
1 1:151 2:151 3:149 
1 1:196 2:197 3:192 
1 1:207 2:208 3:203 
1 1:196 2:197 3:192 
1 1:190 2:191 3:186 
1 1:141 2:136 3:130 
1 1:117 2:112 3:108 
1 1:119 2:114 3:110 
1 1:94 2:89 3:85 
1 1:112 2:107 3:104 
1 1:152 2:147 3:144 
1 1:162 2:157 3:153 
1 1:138 2:135 3:128 
1 1:117 2:114 3:105 
1 1:128 2:126 3:113 
0.995199445426235 1:129 2:135 3:97 
1 1:114 2:122 3:101 
1 1:141 2:150 3:129 
1 1:151 2:159 3:144 
1 1:199 2:193 3:179 
1 1:193 2:187 3:173 
1 1:192 2:186 3:172 
1 1:199 2:193 3:179 
1 1:203 2:197 3:183 
1 1:200 2:194 3:182 
1 1:195 2:189 3:177 
1 1:195 2:189 3:177 
1 1:190 2:184 3:172 
1 1:190 2:184 3:172 
1 1:193 2:187 3:175 
1 1:196 2:189 3:179 
1 1:192 2:185 3:175 
1 1:184 2:177 3:167 
1 1:182 2:175 3:165 
1 1:185 2:178 3:168 
1 1:190 2:186 3:185 
1 1:192 2:188 3:187 
1 1:187 2:184 3:177 
1 1:190 2:187 3:180 
1 1:190 2:187 3:180 
1 1:190 2:187 3:180 
1 1:190 2:187 3:178 
1 1:190 2:187 3:178 
1 1:190 2:187 3:178 
1 1:191 2:189 3:177 
1 1:193 2:191 3:179 
1 1:193 2:191 3:179 
1 1:190 2:188 3:176 
1 1:186 2:184 3:171 
1 1:203 2:201 3:188 
1 1:201 2:195 3:183 
1 1:191 2:185 3:173 
1 1:190 2:186 3:174 
1 1:210 2:206 3:195 
1 1:236 2:232 3:221 
1 1:244 2:241 3:232 
1 1:237 2:234 3:229 
1 1:231 2:230 3:226 
1 1:157 2:157 3:157 
1 1:154 2:154 3:152 
1 1:153 2:153 3:151 
1 1:188 2:189 3:184 
1 1:199 2:200 3:195 
1 1:204 2:205 3:200 
1 1:200 2:201 3:196 
1 1:189 2:190 3:185 
1 1:149 2:144 3:138 
1 1:126 2:121 3:115 
1 1:109 2:104 3:98 
1 1:89 2:84 3:80 
1 1:78 2:73 3:69 
1 1:111 2:106 3:103 
1 1:158 2:153 3:149 
1 1:162 2:159 3:154 
1 1:142 2:139 3:130 
1 1:143 2:141 3:129 
1 1:112 2:113 3:95 
1 1:127 2:135 3:114 
1 1:136 2:148 3:102 
1 1:199 2:193 3:181 
1 1:192 2:186 3:174 
1 1:191 2:185 3:173 
1 1:199 2:193 3:181 
1 1:204 2:198 3:186 
1 1:200 2:194 3:182 
1 1:196 2:190 3:178 
1 1:195 2:189 3:177 
1 1:189 2:183 3:171 
1 1:190 2:184 3:172 
1 1:194 2:188 3:176 
1 1:197 2:191 3:179 
1 1:194 2:188 3:176 
1 1:187 2:181 3:169 
1 1:186 2:180 3:168 
1 1:190 2:184 3:172 
1 1:189 2:185 3:184 
0.9983409122384587 1:190 2:186 3:185 
1 1:179 2:175 3:174 
1 1:175 2:171 3:170 
1 1:190 2:187 3:180 
1 1:193 2:190 3:183 
1 1:193 2:190 3:183 
1 1:193 2:190 3:183 
1 1:191 2:188 3:181 
1 1:191 2:188 3:179 
1 1:191 2:188 3:179 
1 1:190 2:188 3:176 
1 1:191 2:189 3:177 
1 1:191 2:189 3:177 
1 1:190 2:188 3:176 
1 1:192 2:190 3:177 
1 1:200 2:198 3:185 
1 1:206 2:200 3:188 
1 1:195 2:189 3:177 
1 1:191 2:187 3:175 
1 1:210 2:206 3:195 
1 1:235 2:231 3:220 
1 1:247 2:243 3:234 
1 1:243 2:240 3:231 
0.9545671476745393 1:236 2:233 3:226 
1 1:238 2:235 3:228 
1 1:234 2:231 3:226 
1 1:239 2:238 3:233 
1 1:227 2:227 3:225 
1 1:156 2:156 3:154 
1 1:154 2:154 3:152 
1 1:150 2:150 3:148 
0.9712970440712774 1:206 2:206 3:204 
1 1:161 2:157 3:148 
1 1:123 2:118 3:112 
1 1:148 2:143 3:140 
1 1:166 2:163 3:158 
1 1:141 2:138 3:131 
1 1:136 2:133 3:124 
1 1:131 2:129 3:116 
1 1:125 2:133 3:112 
0.999721292000588 1:151 2:156 3:115 
1 1:192 2:186 3:174 
1 1:195 2:189 3:177 
1 1:200 2:194 3:182 
1 1:204 2:198 3:186 
1 1:204 2:198 3:186 
1 1:202 2:196 3:184 
1 1:199 2:193 3:181 
1 1:198 2:192 3:180 
1 1:187 2:181 3:169 
1 1:189 2:183 3:171 
1 1:194 2:188 3:176 
1 1:199 2:193 3:181 
1 1:201 2:195 3:183 
1 1:200 2:194 3:182 
1 1:197 2:191 3:179 
1 1:193 2:187 3:175 
1 1:174 2:170 3:169 
1 1:174 2:170 3:169 
1 1:173 2:169 3:168 
1 1:174 2:170 3:169 
1 1:184 2:181 3:176 
1 1:182 2:179 3:174 
1 1:185 2:182 3:177 
1 1:192 2:189 3:182 
1 1:193 2:190 3:183 
1 1:187 2:184 3:177 
1 1:191 2:188 3:179 
1 1:195 2:192 3:183 
1 1:190 2:187 3:178 
1 1:188 2:186 3:174 
1 1:188 2:186 3:174 
1 1:185 2:183 3:171 
1 1:181 2:179 3:167 
1 1:186 2:184 3:172 
1 1:196 2:194 3:182 
1 1:200 2:194 3:182 
1 1:200 2:194 3:182 
1 1:189 2:185 3:173 
1 1:185 2:181 3:170 
1 1:205 2:201 3:190 
1 1:237 2:233 3:224 
1 1:248 2:245 3:236 
1 1:240 2:237 3:230 
1 1:234 2:231 3:224 
1 1:237 2:234 3:229 
1 1:237 2:236 3:231 
1 1:155 2:155 3:153 
1 1:156 2:156 3:154 
1 1:197 2:197 3:195 
1 1:204 2:204 3:202 
1 1:197 2:198 3:192 
1 1:181 2:182 3:176 
1 1:175 2:174 3:169 
1 1:168 2:164 3:155 
1 1:118 2:114 3:105 
1 1:85 2:81 3:72 
1 1:100 2:96 3:87 
1 1:95 2:90 3:87 
1 1:141 2:138 3:133 
1 1:168 2:165 3:158 
1 1:146 2:143 3:134 
1 1:120 2:118 3:106 
1 1:137 2:138 3:120 
1 1:123 2:130 3:114 
1 1:119 2:126 3:110 
0.9573723352784766 1:113 2:119 3:105 
1 1:198 2:191 3:181 
1 1:195 2:188 3:178 
1 1:192 2:185 3:175 
1 1:192 2:185 3:175 
1 1:196 2:189 3:179 
1 1:198 2:192 3:180 
1 1:195 2:189 3:177 
1 1:194 2:188 3:176 
1 1:194 2:188 3:176 
1 1:196 2:190 3:176 
1 1:198 2:192 3:178 
1 1:196 2:190 3:176 
1 1:192 2:186 3:172 
1 1:187 2:181 3:167 
1 1:194 2:190 3:189 
1 1:203 2:199 3:198 
1 1:208 2:204 3:203 
1 1:201 2:197 3:196 
1 1:184 2:181 3:176 
1 1:185 2:182 3:177 
1 1:185 2:182 3:175 
1 1:183 2:180 3:173 
1 1:186 2:183 3:176 
1 1:186 2:183 3:174 
1 1:187 2:184 3:175 
1 1:191 2:188 3:179 
1 1:196 2:194 3:182 
1 1:193 2:191 3:179 
1 1:184 2:182 3:170 
1 1:181 2:179 3:167 
1 1:184 2:182 3:170 
1 1:198 2:192 3:180 
1 1:201 2:195 3:183 
1 1:196 2:192 3:180 
1 1:190 2:186 3:175 
1 1:197 2:193 3:182 
1 1:220 2:216 3:207 
1 1:246 2:243 3:236 
0.04826209868696596 1:249 2:246 3:239 
1 1:231 2:230 3:226 
0.9866418355882376 1:240 2:239 3:235 
1 1:197 2:198 3:193 
1 1:179 2:180 3:175 
1 1:164 2:165 3:160 
1 1:163 2:164 3:159 
1 1:166 2:167 3:162 
1 1:172 2:172 3:172 
1 1:196 2:196 3:196 
1 1:199 2:200 3:194 
1 1:189 2:190 3:184 
1 1:147 2:143 3:132 
1 1:118 2:115 3:110 
1 1:142 2:139 3:134 
1 1:143 2:140 3:133 
1 1:139 2:136 3:127 
1 1:140 2:140 3:128 
1 1:138 2:139 3:125 
0.953137101381952 1:125 2:126 3:108 
1 1:142 2:150 3:129 
1 1:139 2:147 3:126 
1 1:126 2:133 3:117 
1 1:205 2:196 3:187 
1 1:196 2:187 3:178 
1 1:186 2:177 3:168 
1 1:184 2:175 3:166 
1 1:191 2:182 3:173 
1 1:198 2:189 3:180 
1 1:201 2:193 3:182 
1 1:200 2:192 3:181 
0.9998494899995254 1:203 2:195 3:184 
1 1:198 2:190 3:179 
1 1:193 2:185 3:172 
1 1:193 2:185 3:172 
1 1:192 2:184 3:171 
1 1:187 2:179 3:166 
1 1:172 2:168 3:165 
1 1:174 2:170 3:167 
1 1:177 2:173 3:170 
1 1:179 2:175 3:172 
1 1:180 2:176 3:173 
1 1:179 2:175 3:172 
1 1:178 2:174 3:171 
1 1:184 2:180 3:177 
1 1:201 2:197 3:194 
1 1:194 2:190 3:187 
1 1:189 2:186 3:181 
1 1:188 2:185 3:180 
1 1:189 2:186 3:181 
1 1:185 2:182 3:175 
1 1:184 2:181 3:174 
1 1:186 2:183 3:176 
1 1:179 2:176 3:169 
1 1:183 2:180 3:171 
1 1:190 2:187 3:178 
1 1:197 2:194 3:185 
1 1:196 2:193 3:184 
1 1:189 2:187 3:175 
1 1:185 2:183 3:171 
1 1:184 2:182 3:170 
1 1:194 2:188 3:176 
1 1:202 2:196 3:184 
1 1:203 2:199 3:187 
1 1:196 2:192 3:181 
1 1:189 2:185 3:174 
1 1:198 2:194 3:185 
1 1:223 2:220 3:211 
1 1:246 2:243 3:236 
1 1:240 2:237 3:230 
1 1:235 2:232 3:227 
1 1:231 2:230 3:225 
1 1:202 2:202 3:200 
1 1:188 2:189 3:184 
1 1:161 2:162 3:157 
1 1:158 2:159 3:154 
1 1:168 2:169 3:164 
1 1:200 2:201 3:196 
1 1:197 2:198 3:193 
1 1:169 2:165 3:154 
1 1:127 2:123 3:112 
1 1:94 2:89 3:86 
1 1:117 2:114 3:109 
1 1:141 2:138 3:133 
1 1:163 2:160 3:153 
1 1:158 2:158 3:148 
1 1:134 2:134 3:122 
1 1:124 2:125 3:109 
1 1:125 2:127 3:106 
1 1:113 2:124 3:107 
1 1:133 2:137 3:122 
1 1:123 2:127 3:113 
1 1:116 2:119 3:108 
1 1:197 2:188 3:181 
1 1:190 2:181 3:174 
1 1:189 2:180 3:171 
1 1:192 2:183 3:174 
1 1:197 2:188 3:179 
1 1:200 2:191 3:182 
1 1:201 2:193 3:182 
1 1:189 2:181 3:168 
1 1:189 2:181 3:168 
1 1:198 2:191 3:175 
1 1:194 2:187 3:171 
1 1:185 2:182 3:177 
1 1:185 2:182 3:177 
1 1:183 2:180 3:175 
1 1:179 2:176 3:171 
1 1:175 2:172 3:167 
1 1:173 2:170 3:165 
1 1:176 2:173 3:168 
1 1:177 2:174 3:169 
1 1:178 2:175 3:170 
1 1:177 2:174 3:169 
1 1:176 2:173 3:168 
1 1:179 2:176 3:171 
1 1:189 2:186 3:181 
1 1:198 2:195 3:190 
1 1:193 2:189 3:186 
1 1:192 2:189 3:184 
1 1:192 2:189 3:184 
0.9990537386953314 1:192 2:189 3:182 
1 1:194 2:191 3:184 
1 1:182 2:179 3:172 
1 1:183 2:180 3:173 
1 1:186 2:183 3:174 
1 1:189 2:186 3:177 
1 1:193 2:190 3:181 
1 1:195 2:192 3:183 
1 1:198 2:196 3:184 
1 1:201 2:199 3:187 
1 1:192 2:186 3:174 
1 1:198 2:192 3:180 
1 1:203 2:199 3:187 
1 1:200 2:196 3:185 
1 1:187 2:183 3:172 
1 1:183 2:179 3:170 
1 1:205 2:202 3:193 
1 1:234 2:231 3:224 
1 1:235 2:232 3:225 
1 1:240 2:237 3:232 
1 1:196 2:195 3:193 
1 1:193 2:194 3:188 
1 1:168 2:169 3:164 
1 1:159 2:160 3:155 
1 1:166 2:167 3:162 
1 1:156 2:156 3:156 
1 1:156 2:156 3:156 
0.9880266032683878 1:201 2:202 3:197 
1 1:198 2:199 3:194 
1 1:193 2:192 3:188 
1 1:188 2:187 3:183 
1 1:189 2:188 3:183 
1 1:151 2:147 3:135 
1 1:114 2:110 3:98 
1 1:102 2:98 3:95 
1 1:135 2:132 3:127 
1 1:170 2:167 3:162 
1 1:164 2:164 3:156 
1 1:130 2:130 3:120 
1 1:119 2:123 3:109 
1 1:134 2:137 3:126 
1 1:139 2:142 3:131 
1 1:124 2:127 3:118 
1 1:193 2:184 3:177 
1 1:197 2:188 3:181 
1 1:201 2:192 3:185 
1 1:201 2:192 3:185 
1 1:197 2:188 3:179 
1 1:197 2:188 3:179 
1 1:199 2:191 3:180 
1 1:199 2:192 3:176 
1 1:199 2:192 3:176 
1 1:198 2:191 3:175 
1 1:189 2:186 3:181 
1 1:188 2:185 3:180 
1 1:185 2:182 3:177 
1 1:183 2:180 3:175 
1 1:180 2:177 3:172 
1 1:177 2:174 3:169 
1 1:175 2:172 3:167 
1 1:177 2:174 3:169 
1 1:179 2:176 3:171 
1 1:183 2:180 3:175 
1 1:185 2:182 3:177 
1 1:182 2:179 3:174 
1 1:175 2:172 3:167 
1 1:169 2:166 3:161 
1 1:188 2:184 3:181 
1 1:193 2:190 3:185 
1 1:196 2:193 3:188 
1 1:198 2:195 3:190 
1 1:199 2:196 3:189 
1 1:186 2:183 3:176 
1 1:186 2:183 3:174 
1 1:187 2:184 3:175 
1 1:192 2:189 3:180 
1 1:200 2:197 3:188 
1 1:206 2:203 3:194 
1 1:209 2:206 3:197 
1 1:193 2:187 3:175 
1 1:194 2:188 3:176 
1 1:197 2:193 3:181 
1 1:200 2:196 3:185 
1 1:191 2:187 3:176 
1 1:182 2:178 3:169 
1 1:193 2:190 3:181 
1 1:212 2:209 3:202 
1 1:246 2:243 3:238 
1 1:208 2:207 3:203 
0.9713781040794982 1:184 2:183 3:179 
1 1:191 2:192 3:186 
1 1:190 2:191 3:185 
1 1:165 2:166 3:161 
1 1:161 2:162 3:157 
1 1:164 2:165 3:160 
1 1:200 2:200 3:198 
1 1:193 2:192 3:188 
1 1:198 2:197 3:193 
1 1:194 2:193 3:188 
1 1:185 2:184 3:179 
1 1:141 2:138 3:123 
1 1:151 2:147 3:144 
1 1:159 2:158 3:153 
1 1:139 2:139 3:131 
1 1:142 2:142 3:130 
1 1:125 2:126 3:110 
1 1:115 2:126 3:109 
1 1:118 2:123 3:101 
1 1:141 2:146 3:124 
1 1:125 2:130 3:110 
1 1:128 2:131 3:122 
1 1:129 2:132 3:123 
1 1:187 2:178 3:171 
1 1:207 2:198 3:191 
1 1:210 2:201 3:194 
1 1:204 2:195 3:188 
1 1:197 2:188 3:179 
1 1:195 2:186 3:177 
1 1:195 2:187 3:176 
1 1:197 2:189 3:176 
1 1:192 2:185 3:169 
1 1:193 2:186 3:170 
1 1:180 2:177 3:170 
1 1:179 2:176 3:169 
1 1:179 2:176 3:169 
1 1:178 2:175 3:168 
1 1:179 2:176 3:169 
1 1:180 2:177 3:170 
1 1:181 2:178 3:171 
1 1:182 2:179 3:172 
1 1:184 2:181 3:174 
1 1:178 2:175 3:168 
1 1:166 2:163 3:156 
1 1:181 2:177 3:174 
1 1:194 2:191 3:186 
1 1:195 2:192 3:187 
1 1:194 2:191 3:186 
1 1:189 2:186 3:177 
1 1:201 2:198 3:189 
1 1:203 2:200 3:191 
1 1:201 2:198 3:189 
1 1:199 2:193 3:181 
1 1:193 2:187 3:175 
1 1:191 2:187 3:175 
1 1:196 2:192 3:181 
1 1:196 2:192 3:181 
1 1:191 2:187 3:178 
1 1:189 2:186 3:177 
1 1:193 2:190 3:183 
1 1:234 2:231 3:224 
1 1:222 2:219 3:214 
1 1:191 2:191 3:189 
1 1:187 2:188 3:182 
1 1:184 2:185 3:179 
1 1:173 2:174 3:168 
1 1:161 2:162 3:157 
1 1:160 2:161 3:156 
1 1:165 2:165 3:165 
1 1:191 2:191 3:189 
1 1:200 2:199 3:195 
1 1:186 2:185 3:180 
1 1:117 2:112 3:109 
1 1:118 2:114 3:111 
1 1:144 2:143 3:139 
1 1:151 2:151 3:143 
1 1:144 2:144 3:134 
1 1:124 2:125 3:111 
1 1:129 2:133 3:119 
1 1:194 2:184 3:175 
1 1:192 2:182 3:172 
1 1:197 2:187 3:175 
1 1:191 2:182 3:167 
1 1:189 2:180 3:165 
1 1:189 2:180 3:163 
1 1:189 2:186 3:177 
1 1:187 2:184 3:175 
1 1:186 2:183 3:174 
1 1:187 2:184 3:175 
1 1:190 2:187 3:178 
1 1:193 2:190 3:181 
1 1:195 2:192 3:183 
1 1:190 2:187 3:178 
1 1:184 2:181 3:172 
1 1:185 2:182 3:173 
1 1:190 2:187 3:178 
1 1:189 2:186 3:177 
1 1:184 2:181 3:172 
1 1:184 2:180 3:177 
1 1:188 2:185 3:180 
1 1:183 2:180 3:175 
1 1:185 2:182 3:175 
1 1:186 2:183 3:176 
1 1:184 2:181 3:174 
1 1:189 2:186 3:177 
1 1:198 2:195 3:186 
1 1:199 2:196 3:187 
1 1:195 2:192 3:183 
1 1:206 2:200 3:188 
1 1:196 2:190 3:178 
1 1:188 2:184 3:172 
1 1:192 2:188 3:177 
1 1:199 2:195 3:184 
1 1:200 2:196 3:187 
1 1:192 2:189 3:180 
1 1:184 2:181 3:174 
1 1:197 2:194 3:187 
1 1:182 2:181 3:177 
1 1:184 2:185 3:177 
1 1:186 2:187 3:179 
1 1:187 2:188 3:182 
1 1:181 2:182 3:176 
1 1:166 2:167 3:162 
1 1:191 2:190 3:186 
1 1:199 2:198 3:194 
1 1:195 2:194 3:189 
1 1:157 2:152 3:149 
1 1:118 2:113 3:110 
1 1:121 2:120 3:116 
1 1:146 2:145 3:140 
1 1:140 2:140 3:130 
1 1:141 2:144 3:123 
1 1:129 2:132 3:113 
1 1:129 2:132 3:115 
1 1:130 2:132 3:121 
1 1:131 2:132 3:124 
1 1:201 2:190 3:184 
1 1:188 2:178 3:168 
1 1:193 2:183 3:171 
1 1:197 2:187 3:175 
1 1:190 2:181 3:166 
1 1:186 2:177 3:162 
1 1:190 2:181 3:164 
1 1:185 2:182 3:173 
1 1:181 2:178 3:169 
1 1:179 2:176 3:167 
1 1:180 2:177 3:168 
1 1:183 2:180 3:171 
1 1:185 2:182 3:173 
0.00677695146553825 1:187 2:184 3:175 
1 1:197 2:194 3:185 
1 1:192 2:189 3:180 
0.9987358791013772 1:190 2:187 3:178 
1 1:189 2:186 3:177 
1 1:185 2:182 3:173 
1 1:183 2:179 3:176 
1 1:189 2:185 3:182 
1 1:183 2:179 3:176 
1 1:181 2:178 3:173 
1 1:175 2:172 3:167 
1 1:183 2:180 3:173 
1 1:183 2:180 3:173 
1 1:178 2:175 3:168 
1 1:174 2:171 3:164 
1 1:181 2:178 3:169 
1 1:200 2:197 3:188 
1 1:199 2:196 3:187 
1 1:211 2:205 3:193 
1 1:187 2:183 3:171 
1 1:189 2:185 3:174 
1 1:200 2:196 3:185 
1 1:206 2:202 3:193 
1 1:196 2:193 3:184 
1 1:182 2:179 3:172 
1 1:184 2:181 3:174 
1 1:184 2:181 3:176 
1 1:190 2:191 3:183 
1 1:193 2:194 3:188 
1 1:187 2:188 3:182 
1 1:156 2:156 3:154 
1 1:166 2:165 3:163 
1 1:177 2:176 3:172 
1 1:194 2:193 3:189 
1 1:197 2:194 3:187 
1 1:181 2:178 3:169 
1 1:139 2:134 3:131 
1 1:109 2:105 3:102 
1 1:132 2:131 3:126 
1 1:136 2:136 3:128 
1 1:128 2:128 3:116 
1 1:140 2:145 3:115 
1 1:137 2:140 3:119 
1 1:117 2:119 3:108 
1 1:159 2:160 3:152 
1 1:191 2:185 3:169 
1 1:185 2:179 3:163 
1 1:188 2:182 3:166 
1 1:199 2:193 3:177 
1 1:202 2:196 3:180 
1 1:191 2:185 3:169 
1 1:193 2:187 3:171 
1 1:188 2:182 3:166 
1 1:190 2:184 3:168 
1 1:190 2:184 3:168 
1 1:189 2:183 3:167 
1 1:189 2:183 3:167 
1 1:191 2:185 3:169 
1 1:195 2:187 3:176 
1 1:196 2:190 3:178 
1 1:195 2:189 3:177 
1 1:185 2:178 3:168 
1 1:176 2:169 3:159 
1 1:179 2:175 3:166 
1 1:190 2:186 3:177 
1 1:188 2:183 3:177 
1 1:207 2:202 3:198 
1 1:205 2:202 3:197 
1 1:182 2:178 3:175 
1 1:183 2:179 3:176 
1 1:184 2:185 3:179 
1 1:185 2:186 3:180 
1 1:185 2:185 3:177 
1 1:185 2:185 3:177 
1 1:184 2:184 3:176 
1 1:181 2:181 3:173 
1 1:180 2:180 3:172 
1 1:185 2:182 3:173 
1 1:197 2:194 3:185 
1 1:196 2:195 3:177 
1 1:182 2:184 3:173 
1 1:187 2:188 3:182 
1 1:188 2:184 3:175 
1 1:190 2:186 3:177 
1 1:192 2:189 3:180 
1 1:179 2:176 3:171 
1 1:173 2:172 3:167 
1 1:172 2:171 3:167 
1 1:163 2:162 3:158 
1 1:165 2:164 3:162 
1 1:142 2:143 3:145 
1 1:131 2:128 3:119 
1 1:101 2:98 3:93 
1 1:91 2:90 3:88 
1 1:108 2:106 3:111 
1 1:147 2:147 3:149 
1 1:144 2:144 3:142 
1 1:140 2:141 3:135 
1 1:136 2:140 3:126 
1 1:128 2:126 3:111 
1 1:142 2:141 3:123 
1 1:150 2:153 3:136 
1 1:126 2:135 3:116 
1 1:186 2:180 3:164 
1 1:181 2:175 3:159 
1 1:182 2:176 3:160 
1 1:191 2:185 3:169 
1 1:201 2:195 3:179 
1 1:202 2:196 3:180 
1 1:199 2:193 3:177 
1 1:187 2:181 3:165 
1 1:187 2:181 3:165 
1 1:188 2:182 3:166 
1 1:188 2:182 3:166 
1 1:188 2:182 3:166 
1 1:189 2:183 3:167 
1 1:190 2:184 3:168 
1 1:191 2:185 3:169 
1 1:197 2:191 3:179 
1 1:197 2:191 3:179 
1 1:190 2:183 3:173 
1 1:183 2:176 3:166 
1 1:183 2:179 3:170 
1 1:191 2:187 3:178 
1 1:180 2:175 3:169 
1 1:196 2:191 3:185 
1 1:173 2:174 3:169 
1 1:174 2:175 3:169 
1 1:185 2:186 3:180 
1 1:187 2:188 3:182 
1 1:190 2:190 3:182 
1 1:188 2:188 3:180 
1 1:186 2:186 3:178 
1 1:185 2:182 3:175 
1 1:192 2:189 3:180 
1 1:196 2:193 3:184 
1 1:202 2:200 3:185 
1 1:201 2:199 3:184 
1 1:196 2:198 3:177 
1 1:189 2:190 3:172 
1 1:185 2:186 3:172 
1 1:177 2:177 3:165 
1 1:190 2:186 3:177 
1 1:200 2:196 3:187 
1 1:193 2:190 3:181 
1 1:177 2:174 3:167 
1 1:182 2:179 3:172 
0.9822423325907613 1:205 2:202 3:197 
1 1:197 2:196 3:192 
1 1:160 2:159 3:155 
1 1:159 2:158 3:156 
1 1:157 2:157 3:157 
1 1:150 2:158 3:160 
1 1:149 2:154 3:157 
1 1:157 2:154 3:145 
1 1:122 2:119 3:114 
1 1:123 2:123 3:125 
1 1:140 2:140 3:138 
1 1:150 2:151 3:145 
1 1:142 2:146 3:132 
1 1:135 2:140 3:120 
1 1:136 2:142 3:116 
1 1:113 2:116 3:99 
1 1:130 2:131 3:115 
1 1:143 2:146 3:129 
1 1:128 2:127 3:107 
1 1:116 2:118 3:97 
1 1:136 2:144 3:103 
1 1:187 2:181 3:165 
1 1:185 2:179 3:163 
1 1:182 2:176 3:160 
1 1:185 2:179 3:163 
1 1:196 2:190 3:174 
1 1:206 2:200 3:184 
1 1:204 2:198 3:182 
1 1:196 2:190 3:174 
1 1:188 2:182 3:166 
1 1:186 2:180 3:164 
1 1:184 2:178 3:162 
1 1:184 2:178 3:162 
1 1:186 2:180 3:164 
1 1:189 2:183 3:167 
1 1:191 2:185 3:169 
0.9912865800498596 1:196 2:190 3:178 
1 1:198 2:192 3:180 
1 1:195 2:189 3:177 
1 1:189 2:182 3:172 
1 1:185 2:181 3:170 
1 1:187 2:183 3:174 
1 1:180 2:175 3:169 
1 1:192 2:187 3:181 
1 1:173 2:174 3:168 
1 1:174 2:175 3:169 
1 1:177 2:176 3:171 
1 1:187 2:186 3:181 
1 1:189 2:188 3:183 
1 1:188 2:188 3:180 
1 1:190 2:187 3:180 
1 1:190 2:187 3:180 
1 1:193 2:190 3:183 
1 1:205 2:202 3:187 
1 1:203 2:200 3:185 
1 1:199 2:196 3:181 
1 1:189 2:188 3:170 
1 1:189 2:188 3:170 
1 1:174 2:174 3:162 
1 1:180 2:180 3:170 
1 1:187 2:187 3:179 
1 1:191 2:187 3:178 
1 1:198 2:194 3:185 
1 1:192 2:189 3:180 
1 1:183 2:180 3:173 
1 1:198 2:195 3:188 
1 1:228 2:225 3:220 
1 1:237 2:236 3:231 
1 1:153 2:152 3:150 
1 1:149 2:149 3:149 
1 1:163 2:164 3:166 
1 1:144 2:145 3:147 
1 1:201 2:201 3:203 
1 1:199 2:195 3:194 
1 1:151 2:148 3:141 
1 1:92 2:91 3:89 
1 1:131 2:131 3:129 
1 1:155 2:156 3:150 
1 1:151 2:153 3:140 
1 1:154 2:153 3:135 
1 1:138 2:141 3:122 
1 1:134 2:135 3:117 
1 1:132 2:135 3:116 
1 1:103 2:102 3:97 
1 1:193 2:187 3:171 
1 1:186 2:180 3:164 
1 1:190 2:184 3:168 
1 1:193 2:187 3:171 
1 1:189 2:183 3:167 
1 1:185 2:179 3:163 
1 1:184 2:178 3:162 
1 1:186 2:180 3:164 
1 1:189 2:183 3:167 
1 1:191 2:185 3:169 
1 1:186 2:178 3:165 
1 1:188 2:180 3:167 
1 1:192 2:186 3:172 
1 1:192 2:185 3:175 
1 1:182 2:178 3:167 
1 1:178 2:174 3:165 
1 1:187 2:182 3:176 
1 1:195 2:190 3:184 
1 1:192 2:189 3:184 
1 1:201 2:197 3:194 
1 1:200 2:196 3:193 
1 1:182 2:179 3:174 
1 1:182 2:179 3:174 
1 1:182 2:179 3:174 
1 1:183 2:180 3:175 
1 1:183 2:180 3:173 
1 1:183 2:180 3:173 
1 1:184 2:181 3:174 
1 1:185 2:182 3:175 
1 1:186 2:183 3:176 
1 1:199 2:195 3:183 
1 1:198 2:194 3:182 
1 1:196 2:193 3:178 
1 1:194 2:191 3:176 
0.9966617694116798 1:192 2:189 3:172 
1 1:191 2:188 3:171 
1 1:200 2:198 3:183 
1 1:189 2:187 3:174 
1 1:171 2:169 3:157 
1 1:175 2:172 3:163 
1 1:183 2:180 3:173 
1 1:184 2:181 3:176 
1 1:191 2:187 3:178 
1 1:189 2:185 3:176 
1 1:196 2:193 3:184 
1 1:215 2:212 3:205 
1 1:230 2:227 3:220 
1 1:235 2:232 3:227 
1 1:165 2:164 3:162 
1 1:152 2:153 3:155 
1 1:155 2:156 3:158 
1 1:149 2:154 3:157 
0.9612673478782736 1:197 2:195 3:196 
1 1:196 2:195 3:193 
1 1:195 2:192 3:187 
1 1:137 2:134 3:129 
1 1:99 2:95 3:92 
1 1:108 2:108 3:106 
1 1:136 2:137 3:131 
1 1:148 2:150 3:139 
1 1:142 2:144 3:130 
1 1:119 2:120 3:102 
1 1:118 2:120 3:99 
1 1:137 2:142 3:122 
1 1:136 2:144 3:103 
0.03731612431310516 1:199 2:193 3:177 
1 1:206 2:200 3:184 
1 1:205 2:199 3:183 
1 1:187 2:181 3:165 
1 1:190 2:184 3:168 
1 1:187 2:181 3:165 
1 1:187 2:181 3:165 
1 1:189 2:183 3:167 
1 1:191 2:185 3:169 
1 1:182 2:174 3:161 
1 1:186 2:178 3:165 
1 1:192 2:186 3:172 
1 1:198 2:192 3:180 
1 1:194 2:187 3:177 
1 1:182 2:178 3:167 
1 1:173 2:169 3:160 
1 1:184 2:180 3:171 
1 1:193 2:188 3:182 
1 1:182 2:179 3:174 
1 1:182 2:179 3:174 
1 1:184 2:181 3:176 
1 1:181 2:178 3:173 
1 1:180 2:177 3:172 
1 1:180 2:177 3:172 
1 1:181 2:176 3:172 
1 1:181 2:176 3:172 
1 1:181 2:176 3:172 
1 1:180 2:175 3:171 
1 1:179 2:174 3:170 
1 1:190 2:184 3:172 
1 1:192 2:186 3:174 
1 1:194 2:188 3:176 
1 1:196 2:190 3:176 
1 1:195 2:192 3:175 
1 1:191 2:188 3:171 
1 1:188 2:185 3:168 
1 1:189 2:186 3:169 
1 1:198 2:195 3:180 
1 1:191 2:187 3:175 
1 1:179 2:175 3:164 
1 1:180 2:176 3:167 
1 1:181 2:176 3:170 
1 1:180 2:175 3:169 
1 1:184 2:179 3:175 
1 1:196 2:192 3:183 
1 1:201 2:197 3:188 
1 1:217 2:214 3:205 
1 1:239 2:236 3:231 
1 1:233 2:232 3:227 
1 1:199 2:198 3:196 
1 1:149 2:149 3:149 
1 1:141 2:142 3:144 
1 1:195 2:195 3:197 
1 1:193 2:192 3:190 
1 1:193 2:189 3:186 
1 1:195 2:192 3:185 
1 1:128 2:125 3:120 
1 1:83 2:82 3:80 
1 1:104 2:105 3:100 
1 1:133 2:134 3:126 
1 1:142 2:144 3:133 
1 1:128 2:130 3:116 
1 1:106 2:107 3:89 
1 1:114 2:122 3:101 
1 1:204 2:198 3:182 
1 1:207 2:201 3:185 
1 1:188 2:182 3:166 
1 1:196 2:190 3:174 
1 1:201 2:195 3:179 
1 1:196 2:190 3:174 
1 1:191 2:185 3:169 
0.04111362522210715 1:188 2:182 3:166 
1 1:187 2:181 3:165 
0.9280471229283502 1:191 2:185 3:169 
1 1:194 2:188 3:172 
1 1:187 2:179 3:166 
0.9970139660402866 1:192 2:184 3:171 
1 1:195 2:189 3:175 
1 1:196 2:190 3:176 
1 1:195 2:189 3:177 
1 1:187 2:183 3:172 
1 1:179 2:175 3:164 
1 1:176 2:172 3:163 
1 1:183 2:178 3:172 
1 1:179 2:176 3:169 
1 1:177 2:174 3:169 
1 1:182 2:179 3:174 
1 1:181 2:177 3:174 
1 1:188 2:183 3:179 
1 1:189 2:184 3:180 
1 1:190 2:185 3:181 
1 1:188 2:183 3:179 
1 1:185 2:180 3:176 
1 1:184 2:179 3:175 
1 1:189 2:184 3:180 
1 1:186 2:181 3:177 
1 1:184 2:179 3:175 
1 1:182 2:177 3:173 
1 1:182 2:177 3:173 
1 1:178 2:173 3:170 
1 1:175 2:170 3:167 
1 1:184 2:177 3:167 
1 1:186 2:179 3:169 
1 1:191 2:185 3:173 
1 1:200 2:194 3:180 
1 1:194 2:188 3:172 
1 1:183 2:177 3:161 
1 1:193 2:187 3:173 
1 1:195 2:189 3:177 
1 1:196 2:189 3:179 
1 1:185 2:178 3:172 
1 1:180 2:173 3:167 
1 1:189 2:181 3:178 
1 1:212 2:208 3:199 
1 1:230 2:226 3:217 
1 1:241 2:238 3:229 
1 1:240 2:237 3:230 
1 1:246 2:243 3:238 
1 1:140 2:140 3:140 
1 1:152 2:152 3:152 
1 1:145 2:146 3:148 
1 1:193 2:192 3:188 
1 1:195 2:192 3:187 
1 1:164 2:161 3:154 
1 1:143 2:140 3:135 
1 1:105 2:104 3:100 
1 1:120 2:121 3:115 
1 1:143 2:144 3:136 
1 1:140 2:142 3:131 
1 1:126 2:128 3:115 
1 1:117 2:119 3:106 
1 1:105 2:108 3:89 
1 1:121 2:132 3:115 
1 1:201 2:195 3:179 
1 1:196 2:190 3:174 
1 1:186 2:180 3:164 
1 1:196 2:190 3:176 
1 1:190 2:184 3:170 
1 1:189 2:183 3:169 
1 1:192 2:186 3:174 
1 1:192 2:188 3:177 
1 1:189 2:185 3:174 
1 1:178 2:174 3:165 
1 1:182 2:178 3:169 
1 1:176 2:173 3:166 
1 1:174 2:171 3:164 
1 1:181 2:178 3:173 
1 1:179 2:176 3:171 
1 1:175 2:174 3:170 
0.9678148847905085 1:182 2:181 3:177 
1 1:182 2:174 3:171 
1 1:186 2:178 3:175 
1 1:189 2:181 3:178 
1 1:188 2:180 3:177 
1 1:186 2:181 3:177 
1 1:190 2:185 3:181 
1 1:191 2:186 3:183 
1 1:184 2:179 3:176 
1 1:183 2:178 3:175 
0.9526658089104735 1:182 2:178 3:175 
1 1:185 2:178 3:170 
1 1:187 2:180 3:172 
1 1:191 2:184 3:174 
1 1:201 2:195 3:183 
1 1:201 2:195 3:181 
1 1:197 2:189 3:176 
1 1:192 2:185 3:169 
1 1:186 2:178 3:165 
1 1:194 2:186 3:175 
1 1:203 2:194 3:185 
1 1:205 2:196 3:189 
1 1:189 2:180 3:173 
1 1:208 2:197 3:193 
1 1:234 2:230 3:221 
1 1:242 2:238 3:229 
0.01378023370052683 1:243 2:240 3:231 
1 1:238 2:235 3:228 
1 1:246 2:243 3:238 
0.9814432910419935 1:243 2:242 3:237 
1 1:147 2:147 3:147 
1 1:192 2:191 3:186 
1 1:192 2:192 3:184 
1 1:151 2:148 3:141 
1 1:122 2:119 3:114 
1 1:99 2:98 3:93 
1 1:106 2:105 3:101 
1 1:131 2:132 3:126 
1 1:150 2:151 3:145 
1 1:146 2:147 3:141 
1 1:131 2:132 3:126 
1 1:117 2:120 3:99 
1 1:194 2:188 3:172 
1 1:186 2:180 3:164 
1 1:201 2:195 3:179 
0.9752565773230536 1:196 2:190 3:174 
1 1:186 2:180 3:164 
1 1:203 2:196 3:180 
1 1:203 2:196 3:180 
1 1:184 2:178 3:164 
1 1:180 2:174 3:160 
1 1:188 2:182 3:170 
1 1:194 2:190 3:178 
1 1:196 2:192 3:181 
1 1:189 2:185 3:174 
1 1:189 2:185 3:176 
1 1:180 2:177 3:170 
1 1:179 2:176 3:169 
1 1:183 2:180 3:175 
1 1:175 2:174 3:169 
1 1:183 2:178 3:175 
1 1:181 2:176 3:173 
1 1:190 2:183 3:177 
1 1:190 2:183 3:175 
1 1:192 2:185 3:177 
1 1:196 2:189 3:179 
1 1:201 2:195 3:183 
1 1:201 2:195 3:183 
1 1:190 2:180 3:170 
1 1:201 2:191 3:182 
1 1:190 2:179 3:173 
1 1:229 2:218 3:214 
1 1:236 2:232 3:223 
1 1:230 2:227 3:218 
1 1:239 2:236 3:231 
1 1:242 2:241 3:237 
1 1:198 2:198 3:198 
1 1:151 2:151 3:151 
1 1:194 2:194 3:196 
1 1:202 2:202 3:200 
1 1:192 2:193 3:188 
1 1:190 2:189 3:184 
1 1:198 2:198 3:190 
1 1:134 2:131 3:122 
1 1:105 2:104 3:99 
1 1:111 2:110 3:106 
1 1:146 2:146 3:144 
1 1:152 2:152 3:150 
1 1:133 2:133 3:131 
1 1:115 2:116 3:98 
1 1:181 2:175 3:159 
1 1:194 2:188 3:172 
1 1:176 2:170 3:154 
1 1:203 2:197 3:181 
1 1:202 2:195 3:179 
1 1:190 2:184 3:170 
1 1:191 2:185 3:171 
1 1:191 2:187 3:175 
1 1:192 2:188 3:177 
1 1:196 2:192 3:181 
1 1:189 2:185 3:176 
1 1:182 2:179 3:170 
1 1:184 2:181 3:174 
1 1:188 2:178 3:176 
1 1:189 2:181 3:178 
0.9604785024967853 1:186 2:178 3:175 
1 1:174 2:169 3:166 
1 1:165 2:160 3:157 
1 1:177 2:172 3:169 
1 1:190 2:185 3:181 
1 1:191 2:186 3:180 
1 1:191 2:186 3:180 
1 1:194 2:187 3:179 
1 1:197 2:190 3:180 
1 1:201 2:195 3:183 
1 1:201 2:193 3:180 
0.9921952298641845 1:192 2:182 3:172 
1 1:196 2:186 3:177 
1 1:226 2:222 3:213 
1 1:243 2:240 3:233 
1 1:241 2:238 3:233 
1 1:192 2:192 3:192 
1 1:158 2:159 3:161 
1 1:152 2:156 3:157 
1 1:148 2:152 3:155 
1 1:191 2:193 3:192 
1 1:196 2:197 3:191 
1 1:192 2:193 3:185 
1 1:116 2:113 3:104 
1 1:84 2:83 3:78 
1 1:83 2:82 3:78 
1 1:91 2:90 3:88 
1 1:122 2:120 3:121 
1 1:158 2:156 3:157 
1 1:129 2:127 3:130 
1 1:186 2:180 3:164 
1 1:179 2:173 3:157 
1 1:200 2:193 3:175 
1 1:200 2:193 3:175 
1 1:192 2:186 3:172 
1 1:192 2:186 3:172 
1 1:192 2:188 3:176 
1 1:194 2:190 3:178 
1 1:194 2:190 3:179 
1 1:189 2:185 3:174 
1 1:182 2:179 3:170 
1 1:180 2:177 3:170 
1 1:183 2:180 3:173 
1 1:189 2:188 3:183 
1 1:190 2:189 3:184 
1 1:193 2:184 3:179 
1 1:189 2:182 3:176 
1 1:193 2:185 3:182 
1 1:181 2:176 3:173 
1 1:175 2:170 3:167 
1 1:175 2:171 3:170 
1 1:188 2:183 3:177 
1 1:191 2:187 3:178 
1 1:197 2:193 3:184 
0.970986364910155 1:201 2:193 3:180 
1 1:189 2:179 3:170 
1 1:219 2:215 3:206 
1 1:235 2:231 3:222 
1 1:241 2:238 3:229 
1 1:240 2:237 3:232 
0.9858677962657808 1:155 2:156 3:158 
1 1:164 2:165 3:167 
1 1:151 2:155 3:156 
1 1:149 2:153 3:154 
1 1:145 2:148 3:153 
0.9629946906748242 1:192 2:194 3:191 
1 1:195 2:197 3:192 
1 1:194 2:197 3:190 
1 1:194 2:197 3:188 
1 1:142 2:140 3:128 
1 1:122 2:119 3:110 
1 1:117 2:115 3:118 
1 1:130 2:128 3:133 
1 1:115 2:119 3:92 
1 1:186 2:180 3:164 
1 1:197 2:190 3:172 
1 1:199 2:192 3:174 
1 1:190 2:184 3:170 
1 1:189 2:186 3:171 
1 1:190 2:186 3:174 
1 1:196 2:192 3:181 
1 1:192 2:188 3:177 
1 1:185 2:182 3:173 
1 1:178 2:175 3:166 
1 1:175 2:172 3:165 
1 1:179 2:176 3:169 
1 1:186 2:186 3:178 
1 1:193 2:193 3:185 
1 1:190 2:183 3:177 
1 1:188 2:181 3:175 
1 1:189 2:184 3:180 
1 1:186 2:182 3:179 
1 1:190 2:189 3:185 
1 1:192 2:189 3:180 
1 1:197 2:193 3:182 
1 1:197 2:193 3:181 
1 1:204 2:198 3:186 
1 1:194 2:186 3:175 
1 1:185 2:175 3:165 
1 1:185 2:175 3:166 
1 1:195 2:191 3:182 
1 1:212 2:208 3:199 
1 1:236 2:233 3:224 
1 1:203 2:203 3:203 
1 1:152 2:156 3:157 
0.9751665411004631 1:151 2:155 3:156 
0.9962032547824311 1:145 2:148 3:153 
1 1:197 2:199 3:194 
1 1:195 2:198 3:191 
1 1:193 2:196 3:189 
1 1:147 2:145 3:133 
1 1:109 2:106 3:99 
1 1:125 2:122 3:129 
1 1:126 2:128 3:117 
1 1:129 2:131 3:117 
1 1:137 2:140 3:119 
1 1:186 2:180 3:164 
1 1:185 2:179 3:163 
1 1:186 2:180 3:164 
1 1:197 2:190 3:172 
1 1:187 2:181 3:167 
1 1:183 2:180 3:165 
1 1:183 2:179 3:167 
1 1:197 2:193 3:181 
1 1:196 2:192 3:181 
1 1:191 2:189 3:177 
1 1:181 2:178 3:169 
1 1:171 2:168 3:159 
1 1:171 2:168 3:161 
1 1:178 2:178 3:170 
1 1:187 2:187 3:179 
1 1:187 2:180 3:174 
1 1:185 2:178 3:172 
1 1:180 2:175 3:169 
1 1:180 2:175 3:169 
1 1:183 2:178 3:174 
1 1:190 2:191 3:186 
1 1:178 2:178 3:170 
1 1:184 2:181 3:172 
1 1:192 2:190 3:178 
1 1:201 2:197 3:185 
1 1:189 2:181 3:170 
1 1:190 2:180 3:170 
1 1:171 2:167 3:158 
1 1:187 2:183 3:174 
1 1:226 2:223 3:214 
1 1:248 2:245 3:238 
1 1:240 2:237 3:232 
1 1:247 2:246 3:241 
1 1:208 2:207 3:205 
1 1:150 2:154 3:153 
1 1:130 2:127 3:118 
1 1:96 2:94 3:99 
1 1:130 2:131 3:123 
1 1:155 2:156 3:148 
1 1:159 2:161 3:150 
1 1:153 2:155 3:141 
1 1:158 2:161 3:142 
1 1:195 2:188 3:170 
1 1:198 2:191 3:173 
1 1:197 2:192 3:173 
1 1:183 2:180 3:165 
1 1:183 2:180 3:165 
1 1:192 2:188 3:176 
1 1:194 2:190 3:179 
1 1:192 2:190 3:178 
1 1:185 2:182 3:173 
1 1:175 2:172 3:163 
1 1:172 2:169 3:162 
1 1:175 2:175 3:167 
1 1:181 2:181 3:173 
1 1:181 2:176 3:170 
1 1:179 2:174 3:168 
1 1:177 2:172 3:166 
1 1:176 2:173 3:166 
1 1:179 2:176 3:171 
1 1:180 2:182 3:181 
1 1:196 2:198 3:195 
1 1:175 2:176 3:168 
1 1:175 2:175 3:165 
1 1:185 2:183 3:171 
1 1:192 2:188 3:176 
1 1:195 2:189 3:177 
1 1:194 2:185 3:176 
1 1:173 2:169 3:160 
1 1:173 2:169 3:160 
1 1:203 2:200 3:191 
1 1:235 2:232 3:225 
1 1:242 2:239 3:232 
1 1:247 2:244 3:239 
1 1:217 2:216 3:212 
1 1:189 2:188 3:186 
1 1:151 2:155 3:154 
1 1:149 2:153 3:152 
1 1:192 2:198 3:194 
1 1:192 2:199 3:192 
1 1:190 2:197 3:190 
1 1:192 2:187 3:183 
1 1:99 2:96 3:89 
1 1:119 2:120 3:115 
1 1:160 2:161 3:155 
1 1:166 2:167 3:159 
1 1:148 2:150 3:137 
1 1:154 2:156 3:142 
1 1:158 2:161 3:142 
1 1:193 2:186 3:167 
1 1:193 2:188 3:169 
1 1:194 2:189 3:170 
1 1:192 2:189 3:174 
1 1:192 2:189 3:174 
1 1:184 2:180 3:168 
1 1:187 2:183 3:172 
1 1:188 2:186 3:174 
1 1:183 2:180 3:171 
1 1:180 2:177 3:168 
1 1:178 2:178 3:170 
1 1:179 2:179 3:171 
1 1:181 2:178 3:169 
1 1:180 2:177 3:170 
1 1:180 2:177 3:170 
1 1:181 2:178 3:171 
1 1:183 2:188 3:184 
1 1:186 2:188 3:183 
1 1:185 2:185 3:173 
1 1:191 2:191 3:179 
1 1:189 2:187 3:174 
1 1:196 2:192 3:180 
1 1:203 2:197 3:185 
1 1:193 2:184 3:175 
1 1:188 2:179 3:170 
1 1:189 2:178 3:172 
1 1:192 2:188 3:179 
1 1:176 2:172 3:163 
1 1:180 2:177 3:168 
1 1:210 2:207 3:200 
1 1:241 2:238 3:233 
1 1:217 2:216 3:211 
1 1:150 2:154 3:153 
1 1:147 2:151 3:152 
1 1:193 2:188 3:184 
1 1:133 2:130 3:121 
1 1:104 2:100 3:97 
1 1:112 2:112 3:110 
1 1:150 2:151 3:146 
1 1:158 2:159 3:153 
1 1:135 2:136 3:128 
1 1:132 2:134 3:121 
1 1:144 2:147 3:130 
1 1:184 2:178 3:162 
1 1:203 2:197 3:181 
1 1:203 2:197 3:181 
1 1:206 2:200 3:184 
1 1:198 2:191 3:172 
1 1:190 2:185 3:166 
1 1:192 2:187 3:168 
1 1:200 2:197 3:182 
1 1:199 2:196 3:181 
1 1:184 2:180 3:168 
1 1:184 2:180 3:168 
1 1:184 2:182 3:170 
1 1:186 2:184 3:172 
1 1:175 2:175 3:167 
1 1:182 2:179 3:170 
1 1:184 2:181 3:172 
1 1:185 2:185 3:177 
1 1:183 2:185 3:180 
1 1:189 2:191 3:180 
1 1:191 2:191 3:179 
1 1:197 2:195 3:182 
1 1:201 2:197 3:185 
1 1:201 2:195 3:183 
1 1:195 2:186 3:177 
1 1:190 2:181 3:172 
1 1:189 2:180 3:173 
1 1:190 2:181 3:174 
1 1:197 2:193 3:184 
1 1:188 2:184 3:175 
1 1:180 2:177 3:168 
1 1:209 2:206 3:199 
1 1:185 2:184 3:179 
1 1:185 2:184 3:182 
1 1:196 2:196 3:196 
1 1:148 2:152 3:153 
1 1:198 2:193 3:190 
1 1:127 2:124 3:119 
1 1:100 2:102 3:101 
1 1:127 2:127 3:125 
1 1:149 2:150 3:145 
1 1:144 2:145 3:137 
1 1:131 2:133 3:122 
1 1:133 2:135 3:121 
0.9956097074944562 1:134 2:144 3:119 
1 1:141 2:149 3:128 
1 1:184 2:178 3:162 
1 1:210 2:204 3:188 
1 1:183 2:177 3:161 
0.9922512887211774 1:198 2:191 3:172 
1 1:190 2:185 3:166 
1 1:192 2:187 3:168 
1 1:205 2:199 3:183 
1 1:203 2:200 3:183 
1 1:201 2:198 3:183 
1 1:189 2:185 3:173 
1 1:185 2:181 3:169 
1 1:182 2:180 3:168 
1 1:185 2:183 3:171 
1 1:189 2:186 3:177 
1 1:179 2:179 3:169 
1 1:171 2:171 3:163 
1 1:182 2:179 3:170 
1 1:183 2:183 3:173 
1 1:187 2:187 3:179 
1 1:188 2:188 3:180 
1 1:126 2:132 3:128 
1 1:141 2:146 3:140 
1 1:186 2:188 3:177 
1 1:186 2:188 3:175 
1 1:195 2:196 3:182 
1 1:198 2:196 3:183 
1 1:199 2:195 3:183 
1 1:199 2:192 3:182 
1 1:198 2:189 3:180 
1 1:186 2:182 3:173 
1 1:198 2:194 3:185 
1 1:192 2:189 3:180 
1 1:184 2:181 3:174 
1 1:180 2:177 3:170 
1 1:166 2:163 3:158 
1 1:163 2:162 3:157 
1 1:188 2:187 3:183 
0.9963577602541249 1:192 2:192 3:192 
1 1:200 2:195 3:192 
1 1:130 2:126 3:127 
1 1:141 2:142 3:137 
1 1:164 2:165 3:159 
1 1:151 2:153 3:142 
1 1:140 2:142 3:128 
1 1:186 2:181 3:152 
1 1:184 2:179 3:160 
1 1:176 2:173 3:156 
1 1:181 2:178 3:163 
1 1:195 2:191 3:179 
1 1:193 2:190 3:175 
1 1:191 2:189 3:174 
1 1:191 2:190 3:172 
1 1:189 2:188 3:167 
1 1:202 2:190 3:178 
1 1:203 2:196 3:178 
1 1:193 2:186 3:170 
1 1:184 2:178 3:164 
1 1:187 2:181 3:169 
1 1:196 2:189 3:179 
1 1:198 2:191 3:183 
1 1:187 2:182 3:176 
1 1:176 2:171 3:165 
1 1:169 2:166 3:161 
1 1:125 2:132 3:138 
1 1:127 2:132 3:136 
1 1:171 2:170 3:168 
1 1:181 2:177 3:174 
1 1:195 2:191 3:182 
1 1:198 2:196 3:183 
1 1:195 2:194 3:176 
1 1:180 2:178 3:157 
1 1:185 2:182 3:163 
1 1:193 2:190 3:173 
1 1:199 2:196 3:181 
1 1:193 2:189 3:178 
1 1:183 2:179 3:170 
1 1:182 2:177 3:171 
1 1:196 2:191 3:187 
1 1:192 2:187 3:183 
1 1:194 2:189 3:183 
1 1:192 2:188 3:179 
1 1:187 2:183 3:172 
1 1:189 2:185 3:173 
1 1:197 2:194 3:179 
1 1:199 2:192 3:182 
1 1:192 2:185 3:175 
1 1:179 2:172 3:164 
1 1:162 2:158 3:149 
1 1:154 2:149 3:143 
1 1:153 2:150 3:145 
1 1:154 2:153 3:149 
1 1:155 2:155 3:153 
1 1:108 2:98 3:97 
1 1:109 2:100 3:101 
1 1:106 2:97 3:98 
1 1:160 2:154 3:156 
1 1:145 2:139 3:141 
1 1:150 2:146 3:147 
1 1:142 2:138 3:137 
1 1:130 2:129 3:124 
1 1:124 2:126 3:115 
1 1:129 2:140 3:123 
1 1:119 2:128 3:111 
1 1:130 2:139 3:122 
1 1:119 2:123 3:109 
1 1:124 2:128 3:114 
1 1:129 2:124 3:92 
1 1:192 2:188 3:163 
0.9804985925059552 1:190 2:185 3:166 
1 1:185 2:179 3:163 
1 1:185 2:182 3:167 
1 1:193 2:189 3:177 
1 1:192 2:188 3:176 
1 1:193 2:189 3:177 
1 1:183 2:181 3:166 
1 1:181 2:180 3:162 
1 1:186 2:185 3:165 
1 1:205 2:193 3:179 
1 1:200 2:188 3:174 
1 1:207 2:200 3:182 
1 1:197 2:190 3:172 
1 1:186 2:180 3:166 
1 1:188 2:182 3:170 
1 1:192 2:188 3:177 
1 1:194 2:190 3:181 
1 1:192 2:187 3:181 
1 1:187 2:182 3:176 
1 1:174 2:173 3:169 
1 1:174 2:173 3:169 
1 1:124 2:129 3:133 
1 1:135 2:139 3:142 
0.9833562914129477 1:184 2:180 3:177 
1 1:184 2:181 3:176 
1 1:191 2:187 3:178 
1 1:193 2:189 3:178 
1 1:190 2:188 3:175 
1 1:191 2:189 3:174 
1 1:186 2:184 3:163 
1 1:186 2:183 3:164 
1 1:191 2:188 3:171 
1 1:194 2:191 3:176 
1 1:190 2:186 3:175 
1 1:183 2:179 3:170 
1 1:184 2:179 3:173 
1 1:195 2:190 3:186 
1 1:186 2:181 3:175 
1 1:190 2:185 3:179 
1 1:195 2:191 3:182 
1 1:195 2:191 3:180 
1 1:191 2:187 3:175 
1 1:188 2:184 3:172 
1 1:184 2:177 3:167 
1 1:199 2:192 3:182 
1 1:199 2:192 3:184 
1 1:176 2:172 3:163 
1 1:155 2:150 3:144 
1 1:152 2:149 3:144 
1 1:159 2:158 3:154 
0.9940441152164566 1:153 2:154 3:158 
1 1:100 2:90 3:88 
1 1:134 2:128 3:130 
1 1:144 2:138 3:140 
1 1:156 2:152 3:153 
1 1:138 2:134 3:133 
1 1:110 2:109 3:104 
1 1:113 2:113 3:103 
1 1:111 2:113 3:99 
1 1:112 2:123 3:106 
1 1:196 2:190 3:166 
1 1:178 2:173 3:153 
1 1:179 2:173 3:157 
1 1:190 2:184 3:170 
1 1:198 2:194 3:182 
1 1:201 2:197 3:186 
1 1:188 2:184 3:173 
1 1:181 2:177 3:166 
1 1:168 2:166 3:154 
1 1:160 2:158 3:145 
1 1:169 2:167 3:152 
1 1:188 2:187 3:169 
1 1:198 2:189 3:174 
1 1:188 2:179 3:162 
1 1:195 2:188 3:170 
1 1:196 2:191 3:172 
1 1:190 2:184 3:170 
1 1:187 2:183 3:171 
1 1:188 2:184 3:173 
1 1:191 2:187 3:178 
1 1:193 2:190 3:183 
1 1:195 2:192 3:187 
1 1:171 2:173 3:172 
1 1:136 2:141 3:145 
1 1:102 2:106 3:109 
1 1:145 2:146 3:148 
1 1:190 2:185 3:179 
1 1:191 2:187 3:176 
1 1:189 2:185 3:173 
1 1:190 2:187 3:172 
1 1:191 2:190 3:172 
1 1:186 2:183 3:164 
1 1:186 2:183 3:164 
1 1:194 2:191 3:176 
1 1:193 2:189 3:178 
1 1:188 2:184 3:175 
1 1:184 2:179 3:173 
1 1:184 2:179 3:175 
1 1:187 2:182 3:178 
1 1:192 2:187 3:181 
1 1:190 2:185 3:179 
1 1:189 2:185 3:176 
1 1:191 2:187 3:176 
1 1:192 2:188 3:176 
1 1:190 2:186 3:174 
1 1:198 2:191 3:181 
1 1:225 2:218 3:210 
1 1:199 2:194 3:188 
1 1:159 2:154 3:148 
1 1:146 2:143 3:138 
1 1:154 2:153 3:149 
1 1:128 2:127 3:109 
1 1:95 2:86 3:79 
1 1:143 2:137 3:137 
1 1:164 2:158 3:158 
1 1:137 2:133 3:132 
1 1:121 2:120 3:116 
1 1:118 2:118 3:110 
1 1:107 2:110 3:91 
1 1:118 2:130 3:110 
1 1:126 2:135 3:116 
1 1:144 2:141 3:110 
1 1:149 2:150 3:110 
1 1:185 2:180 3:161 
1 1:174 2:168 3:152 
1 1:181 2:175 3:161 
1 1:199 2:192 3:182 
1 1:202 2:198 3:189 
1 1:194 2:190 3:181 
1 1:177 2:172 3:166 
1 1:160 2:156 3:147 
1 1:136 2:133 3:124 
1 1:132 2:130 3:118 
1 1:157 2:155 3:143 
1 1:194 2:195 3:179 
1 1:183 2:184 3:168 
1 1:190 2:181 3:164 
1 1:185 2:178 3:160 
1 1:190 2:183 3:165 
1 1:196 2:191 3:172 
1 1:196 2:193 3:176 
1 1:190 2:187 3:172 
1 1:185 2:183 3:171 
1 1:185 2:182 3:173 
1 1:189 2:188 3:183 
1 1:192 2:191 3:186 
0.9664928387023755 1:194 2:196 3:195 
1 1:121 2:126 3:130 
1 1:129 2:130 3:134 
1 1:193 2:188 3:184 
1 1:194 2:190 3:181 
1 1:193 2:189 3:178 
1 1:193 2:190 3:175 
1 1:192 2:189 3:174 
1 1:184 2:181 3:162 
1 1:185 2:182 3:163 
1 1:191 2:188 3:171 
1 1:197 2:194 3:179 
1 1:199 2:195 3:183 
1 1:194 2:190 3:181 
1 1:184 2:179 3:173 
1 1:178 2:173 3:167 
1 1:176 2:171 3:167 
1 1:193 2:188 3:184 
1 1:202 2:197 3:191 
1 1:191 2:186 3:180 
1 1:177 2:173 3:164 
1 1:180 2:176 3:165 
1 1:196 2:192 3:180 
1 1:210 2:206 3:194 
1 1:230 2:223 3:215 
1 1:250 2:246 3:237 
1 1:222 2:217 3:211 
1 1:178 2:175 3:170 
1 1:151 2:147 3:144 
1 1:150 2:149 3:145 
1 1:146 2:150 3:153 
1 1:193 2:192 3:190 
1 1:117 2:109 3:96 
1 1:109 2:101 3:90 
1 1:97 2:88 3:79 
1 1:99 2:92 3:86 
1 1:141 2:136 3:132 
1 1:171 2:166 3:163 
1 1:155 2:151 3:148 
1 1:140 2:139 3:135 
1 1:129 2:128 3:123 
1 1:109 2:111 3:100 
0.9920646991644861 1:136 2:142 3:116 
0.9943538120505825 1:118 2:130 3:110 
1 1:143 2:145 3:105 
1 1:189 2:183 3:169 
1 1:178 2:172 3:160 
1 1:185 2:178 3:168 
1 1:198 2:191 3:183 
1 1:189 2:184 3:178 
1 1:170 2:165 3:161 
1 1:154 2:149 3:145 
1 1:142 2:137 3:133 
1 1:125 2:122 3:117 
1 1:122 2:119 3:112 
1 1:144 2:141 3:134 
1 1:174 2:171 3:162 
1 1:187 2:187 3:177 
1 1:184 2:174 3:162 
1 1:189 2:180 3:165 
1 1:198 2:191 3:173 
1 1:194 2:189 3:170 
1 1:187 2:184 3:165 
1 1:202 2:199 3:182 
1 1:194 2:192 3:177 
1 1:186 2:184 3:171 
1 1:181 2:181 3:169 
1 1:183 2:183 3:173 
1 1:188 2:189 3:184 
1 1:155 2:164 3:169 
1 1:142 2:143 3:147 
1 1:194 2:187 3:181 
1 1:197 2:190 3:182 
1 1:197 2:190 3:180 
1 1:195 2:188 3:178 
1 1:190 2:186 3:174 
1 1:189 2:186 3:167 
1 1:189 2:186 3:169 
1 1:196 2:192 3:180 
1 1:196 2:192 3:181 
1 1:190 2:186 3:177 
1 1:183 2:178 3:172 
1 1:177 2:172 3:166 
1 1:189 2:184 3:178 
1 1:195 2:190 3:184 
1 1:187 2:183 3:174 
1 1:180 2:176 3:167 
1 1:190 2:186 3:175 
1 1:213 2:209 3:198 
1 1:232 2:228 3:217 
1 1:243 2:239 3:230 
1 1:242 2:238 3:229 
1 1:214 2:211 3:206 
1 1:176 2:172 3:169 
1 1:154 2:153 3:151 
1 1:152 2:152 3:152 
1 1:157 2:157 3:157 
1 1:154 2:155 3:157 
1 1:103 2:98 3:92 
1 1:144 2:139 3:135 
1 1:153 2:149 3:146 
1 1:143 2:139 3:136 
1 1:132 2:131 3:127 
1 1:117 2:116 3:111 
1 1:115 2:117 3:106 
1 1:122 2:124 3:111 
1 1:149 2:148 3:117 
1 1:192 2:185 3:175 
1 1:180 2:173 3:165 
1 1:176 2:169 3:163 
1 1:175 2:167 3:164 
1 1:160 2:155 3:151 
1 1:141 2:136 3:133 
1 1:134 2:129 3:126 
1 1:137 2:132 3:129 
1 1:137 2:133 3:130 
1 1:133 2:129 3:126 
1 1:134 2:130 3:127 
1 1:148 2:145 3:140 
1 1:172 2:171 3:166 
1 1:192 2:191 3:186 
1 1:175 2:167 3:154 
1 1:180 2:173 3:157 
1 1:188 2:181 3:165 
1 1:205 2:200 3:181 
1 1:196 2:193 3:174 
1 1:189 2:188 3:170 
1 1:187 2:188 3:172 
1 1:181 2:183 3:170 
1 1:180 2:182 3:171 
1 1:181 2:184 3:175 
1 1:186 2:188 3:183 
1 1:193 2:186 3:178 
1 1:192 2:185 3:175 
1 1:193 2:186 3:176 
0.9653166141990694 1:198 2:195 3:178 
1 1:188 2:185 3:170 
1 1:184 2:181 3:166 
1 1:187 2:183 3:171 
1 1:195 2:191 3:180 
1 1:199 2:195 3:186 
1 1:197 2:193 3:184 
1 1:189 2:184 3:178 
1 1:181 2:176 3:170 
1 1:178 2:173 3:167 
1 1:189 2:185 3:176 
1 1:206 2:202 3:193 
1 1:222 2:218 3:209 
1 1:235 2:231 3:220 
1 1:251 2:248 3:243 
1 1:242 2:239 3:234 
1 1:203 2:202 3:198 
1 1:161 2:160 3:158 
1 1:138 2:138 3:138 
1 1:153 2:153 3:153 
1 1:200 2:200 3:200 
1 1:196 2:193 3:188 
1 1:113 2:108 3:102 
1 1:139 2:134 3:131 
1 1:153 2:149 3:148 
1 1:142 2:141 3:139 
1 1:128 2:127 3:123 
1 1:125 2:126 3:120 
1 1:129 2:130 3:122 
1 1:107 2:111 3:97 
0.976301336031364 1:132 2:141 3:122 
1 1:173 2:165 3:162 
1 1:151 2:143 3:140 
1 1:136 2:128 3:126 
1 1:126 2:121 3:118 
1 1:120 2:114 3:114 
1 1:134 2:128 3:128 
1 1:138 2:132 3:132 
1 1:143 2:139 3:138 
1 1:143 2:139 3:138 
1 1:134 2:130 3:129 
1 1:133 2:129 3:128 
1 1:154 2:153 3:151 
1 1:183 2:175 3:162 
1 1:185 2:177 3:164 
1 1:189 2:183 3:169 
1 1:202 2:199 3:182 
1 1:204 2:201 3:184 
1 1:193 2:184 3:179 
1 1:196 2:193 3:178 
1 1:196 2:193 3:178 
1 1:191 2:188 3:173 
1 1:185 2:181 3:169 
1 1:188 2:184 3:172 
1 1:197 2:193 3:182 
1 1:203 2:199 3:188 
1 1:203 2:199 3:190 
1 1:200 2:196 3:187 
1 1:182 2:178 3:169 
1 1:181 2:177 3:168 
1 1:207 2:203 3:194 
1 1:234 2:230 3:221 
0.9504009175294715 1:244 2:240 3:231 
1 1:242 2:239 3:232 
1 1:240 2:237 3:230 
1 1:244 2:241 3:236 
1 1:247 2:244 3:239 
1 1:145 2:145 3:145 
1 1:148 2:148 3:148 
1 1:154 2:155 3:157 
1 1:196 2:196 3:194 
1 1:193 2:192 3:188 
1 1:192 2:189 3:184 
1 1:154 2:148 3:126 
1 1:109 2:104 3:98 
1 1:124 2:119 3:115 
1 1:156 2:152 3:151 
1 1:154 2:150 3:151 
1 1:144 2:142 3:143 
1 1:141 2:140 3:138 
1 1:137 2:137 3:135 
1 1:118 2:119 3:114 
1 1:139 2:147 3:126 
0.9997749132010413 1:123 2:135 3:111 
1 1:140 2:144 3:109 
1 1:189 2:179 3:177 
1 1:197 2:187 3:185 
1 1:192 2:184 3:181 
1 1:165 2:157 3:155 
1 1:128 2:120 3:118 
1 1:105 2:97 3:95 
1 1:103 2:97 3:97 
1 1:111 2:105 3:105 
1 1:146 2:140 3:140 
1 1:136 2:132 3:133 
1 1:144 2:140 3:141 
1 1:140 2:136 3:137 
1 1:132 2:128 3:129 
1 1:141 2:139 3:140 
1 1:195 2:189 3:177 
1 1:195 2:189 3:175 
0.9966084474142169 1:195 2:192 3:177 
1 1:196 2:198 3:184 
1 1:189 2:195 3:185 
1 1:189 2:179 3:177 
1 1:188 2:185 3:170 
1 1:194 2:191 3:176 
1 1:196 2:193 3:178 
1 1:194 2:190 3:178 
1 1:195 2:191 3:179 
1 1:202 2:198 3:186 
1 1:203 2:199 3:188 
1 1:199 2:195 3:184 
1 1:203 2:199 3:188 
1 1:189 2:185 3:176 
1 1:197 2:193 3:184 
1 1:229 2:225 3:216 
1 1:246 2:242 3:233 
1 1:242 2:238 3:229 
1 1:243 2:240 3:235 
0.9725426662451597 1:237 2:234 3:229 
0.9829538614917475 1:250 2:249 3:245 
1 1:144 2:144 3:144 
1 1:149 2:150 3:155 
1 1:192 2:191 3:187 
1 1:188 2:185 3:180 
1 1:184 2:178 3:152 
1 1:136 2:130 3:130 
1 1:150 2:146 3:147 
1 1:154 2:154 3:154 
1 1:121 2:121 3:121 
1 1:97 2:97 3:95 
1 1:98 2:98 3:96 
1 1:176 2:166 3:165 
1 1:157 2:149 3:147 
1 1:104 2:96 3:94 
1 1:109 2:103 3:103 
1 1:114 2:108 3:108 
1 1:145 2:139 3:139 
1 1:138 2:132 3:134 
1 1:135 2:131 3:132 
1 1:140 2:136 3:137 
1 1:139 2:134 3:138 
1 1:133 2:128 3:132 
1 1:134 2:132 3:135 
1 1:143 2:141 3:144 
1 1:177 2:173 3:162 
1 1:195 2:191 3:180 
1 1:177 2:173 3:161 
1 1:172 2:170 3:157 
1 1:206 2:204 3:191 
1 1:203 2:204 3:190 
1 1:183 2:185 3:171 
1 1:197 2:201 3:187 
0.9896388551550164 1:193 2:185 3:182 
1 1:195 2:187 3:184 
1 1:188 2:184 3:172 
1 1:195 2:191 3:179 
1 1:198 2:194 3:182 
1 1:194 2:190 3:178 
1 1:192 2:188 3:176 
1 1:195 2:191 3:179 
1 1:200 2:196 3:184 
1 1:202 2:198 3:187 
1 1:202 2:198 3:187 
1 1:189 2:185 3:174 
1 1:192 2:188 3:179 
1 1:218 2:214 3:205 
1 1:240 2:236 3:227 
1 1:233 2:232 3:228 
1 1:151 2:151 3:153 
0.982903066504356 1:154 2:155 3:157 
1 1:148 2:149 3:154 
1 1:147 2:151 3:154 
1 1:200 2:200 3:200 
0.02941525717181415 1:200 2:200 3:198 
1 1:107 2:100 3:92 
1 1:157 2:153 3:154 
1 1:152 2:150 3:153 
1 1:121 2:121 3:123 
1 1:95 2:95 3:95 
1 1:110 2:117 3:99 
1 1:152 2:142 3:141 
1 1:119 2:111 3:109 
1 1:116 2:108 3:106 
1 1:127 2:122 3:119 
1 1:145 2:140 3:137 
1 1:168 2:163 3:160 
1 1:153 2:147 3:147 
1 1:138 2:134 3:133 
1 1:132 2:128 3:129 
1 1:132 2:128 3:129 
1 1:134 2:129 3:133 
1 1:135 2:133 3:136 
1 1:139 2:137 3:140 
1 1:171 2:167 3:158 
1 1:193 2:190 3:181 
1 1:183 2:180 3:171 
1 1:168 2:168 3:158 
1 1:187 2:187 3:177 
1 1:196 2:198 3:187 
1 1:195 2:201 3:191 
1 1:194 2:189 3:185 
1 1:185 2:181 3:169 
1 1:192 2:188 3:176 
1 1:196 2:192 3:180 
1 1:192 2:188 3:176 
1 1:189 2:185 3:173 
1 1:192 2:188 3:176 
1 1:195 2:191 3:179 
1 1:196 2:192 3:180 
1 1:202 2:198 3:186 
1 1:196 2:192 3:181 
1 1:193 2:189 3:178 
1 1:204 2:200 3:191 
1 1:227 2:223 3:214 
1 1:154 2:154 3:156 
1 1:176 2:177 3:179 
1 1:92 2:84 3:71 
1 1:157 2:155 3:158 
1 1:130 2:128 3:131 
1 1:115 2:115 3:115 
1 1:111 2:111 3:111 
1 1:150 2:140 3:139 
1 1:127 2:117 3:116 
1 1:115 2:107 3:104 
1 1:127 2:120 3:114 
1 1:144 2:139 3:133 
1 1:168 2:163 3:157 
1 1:183 2:178 3:174 
1 1:167 2:162 3:158 
1 1:144 2:140 3:137 
1 1:130 2:126 3:125 
1 1:131 2:127 3:128 
1 1:139 2:135 3:136 
1 1:137 2:135 3:138 
1 1:132 2:130 3:133 
1 1:152 2:149 3:144 
1 1:179 2:176 3:171 
1 1:188 2:188 3:180 
1 1:176 2:176 3:168 
1 1:174 2:175 3:167 
0.9999894536401336 1:155 2:164 3:169 
1 1:190 2:186 3:175 
1 1:197 2:193 3:182 
1 1:200 2:196 3:184 
1 1:196 2:192 3:180 
1 1:192 2:188 3:176 
1 1:192 2:189 3:174 
1 1:200 2:196 3:184 
1 1:203 2:199 3:187 
1 1:195 2:191 3:180 
1 1:188 2:184 3:175 
1 1:207 2:202 3:196 
1 1:238 2:233 3:229 
1 1:236 2:237 3:232 
1 1:146 2:146 3:148 
1 1:149 2:149 3:151 
1 1:152 2:152 3:154 
0.9885131760397836 1:152 2:151 3:156 
1 1:190 2:189 3:184 
1 1:125 2:120 3:124 
1 1:154 2:152 3:153 
1 1:134 2:132 3:133 
1 1:133 2:132 3:130 
1 1:122 2:121 3:119 
1 1:111 2:114 3:103 
1 1:118 2:108 3:106 
1 1:122 2:112 3:110 
1 1:119 2:111 3:108 
1 1:117 2:110 3:104 
1 1:131 2:124 3:116 
1 1:157 2:150 3:142 
1 1:172 2:168 3:159 
1 1:175 2:171 3:162 
1 1:180 2:176 3:167 
1 1:172 2:167 3:161 
1 1:154 2:151 3:144 
1 1:138 2:135 3:130 
1 1:137 2:133 3:130 
1 1:144 2:140 3:139 
1 1:139 2:137 3:138 
1 1:129 2:127 3:128 
1 1:130 2:129 3:125 
1 1:154 2:153 3:149 
1 1:188 2:187 3:183 
1 1:193 2:194 3:189 
1 1:172 2:173 3:175 
1 1:183 2:184 3:176 
1 1:192 2:188 3:177 
1 1:198 2:194 3:183 
1 1:200 2:196 3:185 
1 1:197 2:193 3:181 
1 1:191 2:188 3:173 
1 1:188 2:185 3:170 
1 1:204 2:200 3:188 
1 1:198 2:194 3:183 
1 1:183 2:179 3:170 
1 1:189 2:184 3:178 
1 1:219 2:214 3:210 
1 1:241 2:236 3:232 
1 1:227 2:227 3:225 
1 1:145 2:149 3:152 
1 1:142 2:147 3:150 
1 1:196 2:197 3:192 
1 1:215 2:212 3:205 
1 1:73 2:67 3:69 
1 1:137 2:133 3:134 
1 1:146 2:142 3:141 
1 1:140 2:139 3:137 
1 1:137 2:136 3:132 
1 1:129 2:128 3:124 
1 1:129 2:134 3:114 
1 1:132 2:123 3:118 
1 1:117 2:110 3:102 
1 1:154 2:147 3:137 
1 1:199 2:195 3:183 
1 1:185 2:181 3:169 
1 1:178 2:174 3:162 
1 1:178 2:174 3:163 
1 1:165 2:162 3:153 
1 1:147 2:144 3:137 
1 1:138 2:135 3:130 
1 1:141 2:137 3:134 
1 1:139 2:138 3:136 
1 1:133 2:132 3:130 
1 1:128 2:126 3:127 
1 1:135 2:133 3:134 
1 1:189 2:185 3:182 
1 1:187 2:186 3:181 
1 1:185 2:184 3:179 
1 1:178 2:184 3:174 
1 1:182 2:178 3:169 
1 1:188 2:184 3:175 
1 1:191 2:187 3:176 
1 1:190 2:186 3:174 
1 1:191 2:188 3:173 
1 1:189 2:186 3:169 
1 1:190 2:187 3:172 
1 1:198 2:195 3:180 
1 1:200 2:196 3:184 
1 1:190 2:186 3:177 
1 1:181 2:176 3:170 
1 1:192 2:187 3:183 
1 1:221 2:216 3:213 
1 1:248 2:243 3:240 
1 1:191 2:193 3:192 
1 1:194 2:195 3:190 
1 1:145 2:136 3:131 
1 1:90 2:80 3:79 
1 1:143 2:139 3:136 
1 1:156 2:155 3:150 
1 1:146 2:146 3:138 
1 1:144 2:144 3:136 
1 1:126 2:130 3:116 
1 1:129 2:136 3:118 
1 1:123 2:114 3:107 
1 1:116 2:107 3:100 
1 1:124 2:117 3:107 
1 1:152 2:146 3:134 
1 1:179 2:173 3:159 
1 1:191 2:185 3:171 
1 1:193 2:190 3:173 
1 1:186 2:183 3:166 
1 1:185 2:182 3:167 
1 1:174 2:172 3:159 
1 1:155 2:153 3:141 
1 1:139 2:136 3:129 
1 1:134 2:131 3:126 
1 1:136 2:135 3:131 
1 1:139 2:138 3:134 
1 1:139 2:137 3:140 
1 1:126 2:126 3:128 
1 1:185 2:184 3:182 
1 1:189 2:188 3:183 
1 1:190 2:189 3:184 
1 1:179 2:175 3:166 
1 1:184 2:180 3:171 
1 1:188 2:184 3:173 
1 1:190 2:186 3:174 
1 1:200 2:197 3:182 
1 1:202 2:199 3:182 
1 1:199 2:196 3:179 
1 1:191 2:188 3:171 
1 1:192 2:189 3:174 
1 1:198 2:194 3:182 
1 1:198 2:194 3:183 
1 1:185 2:180 3:174 
1 1:180 2:175 3:171 
1 1:203 2:198 3:195 
1 1:235 2:230 3:227 
1 1:234 2:236 3:233 
1 1:153 2:151 3:154 
1 1:151 2:152 3:154 
1 1:194 2:196 3:193 
1 1:189 2:188 3:183 
1 1:190 2:186 3:177 
1 1:124 2:114 3:113 
1 1:98 2:92 3:92 
1 1:134 2:131 3:126 
1 1:165 2:162 3:155 
1 1:158 2:158 3:148 
1 1:162 2:162 3:150 
1 1:136 2:139 3:132 
1 1:133 2:136 3:127 
1 1:70 2:74 3:59 
1 1:129 2:120 3:111 
1 1:162 2:156 3:144 
1 1:185 2:179 3:165 
1 1:178 2:172 3:156 
1 1:179 2:176 3:157 
1 1:190 2:187 3:168 
1 1:189 2:186 3:167 
1 1:187 2:184 3:167 
1 1:180 2:178 3:163 
1 1:168 2:166 3:153 
1 1:150 2:147 3:138 
1 1:136 2:133 3:126 
1 1:133 2:132 3:127 
1 1:139 2:138 3:134 
1 1:140 2:139 3:144 
1 1:122 2:121 3:126 
1 1:129 2:130 3:134 
1 1:175 2:171 3:168 
1 1:175 2:172 3:167 
1 1:186 2:185 3:180 
1 1:186 2:187 3:179 
1 1:188 2:184 3:175 
1 1:191 2:187 3:178 
1 1:193 2:189 3:178 
1 1:194 2:190 3:178 
1 1:198 2:195 3:180 
1 1:205 2:202 3:187 
1 1:207 2:204 3:187 
1 1:204 2:201 3:184 
1 1:196 2:193 3:176 
0.9609915518270764 1:191 2:188 3:173 
1 1:199 2:195 3:184 
1 1:196 2:191 3:185 
1 1:186 2:188 3:187 
1 1:176 2:178 3:177 
1 1:180 2:182 3:181 
1 1:198 2:200 3:197 
1 1:191 2:190 3:185 
1 1:182 2:178 3:169 
1 1:180 2:173 3:163 
1 1:114 2:106 3:104 
1 1:103 2:100 3:93 
1 1:138 2:136 3:124 
1 1:157 2:158 3:144 
1 1:164 2:165 3:151 
1 1:149 2:150 3:145 
1 1:142 2:143 3:135 
1 1:122 2:124 3:111 
0.996712028924176 1:107 2:111 3:97 
1 1:116 2:122 3:108 
1 1:129 2:120 3:111 
1 1:161 2:152 3:143 
1 1:182 2:176 3:164 
1 1:180 2:174 3:160 
1 1:180 2:174 3:158 
1 1:182 2:180 3:159 
1 1:182 2:179 3:160 
1 1:182 2:180 3:167 
1 1:166 2:164 3:152 
1 1:143 2:140 3:133 
1 1:131 2:130 3:125 
1 1:134 2:133 3:128 
1 1:131 2:130 3:136 
1 1:118 2:117 3:123 
1 1:115 2:116 3:121 
1 1:131 2:134 3:139 
1 1:150 2:159 3:164 
0.9919401947010433 1:177 2:179 3:178 
1 1:188 2:187 3:183 
0.965650009109696 1:189 2:185 3:182 
1 1:177 2:172 3:168 
1 1:174 2:171 3:166 
1 1:180 2:177 3:172 
0.06372915074516938 1:181 2:184 3:175 
1 1:178 2:186 3:173 
1 1:195 2:190 3:184 
1 1:197 2:193 3:184 
1 1:196 2:192 3:181 
1 1:194 2:190 3:178 
1 1:196 2:193 3:178 
1 1:200 2:197 3:180 
1 1:201 2:198 3:181 
1 1:201 2:198 3:181 
1 1:192 2:189 3:174 
1 1:189 2:185 3:173 
1 1:197 2:193 3:182 
1 1:205 2:200 3:194 
1 1:202 2:197 3:193 
1 1:193 2:188 3:185 
1 1:152 2:150 3:151 
1 1:139 2:147 3:150 
1 1:142 2:147 3:150 
0.96590738745468 1:197 2:199 3:196 
1 1:201 2:200 3:195 
1 1:177 2:170 3:160 
1 1:150 2:142 3:140 
1 1:120 2:112 3:110 
1 1:149 2:147 3:134 
1 1:155 2:156 3:140 
1 1:152 2:153 3:148 
1 1:142 2:143 3:137 
1 1:116 2:118 3:107 
1 1:136 2:140 3:117 
0.9974758966371533 1:129 2:133 3:119 
1 1:138 2:146 3:131 
1 1:183 2:177 3:155 
1 1:183 2:177 3:155 
1 1:183 2:176 3:157 
1 1:186 2:179 3:161 
1 1:188 2:182 3:168 
1 1:185 2:179 3:165 
1 1:179 2:173 3:161 
1 1:179 2:175 3:164 
1 1:186 2:182 3:173 
1 1:178 2:173 3:167 
1 1:154 2:149 3:143 
1 1:134 2:131 3:126 
1 1:129 2:126 3:121 
1 1:125 2:120 3:126 
1 1:124 2:119 3:125 
1 1:128 2:126 3:131 
1 1:108 2:107 3:113 
1 1:143 2:143 3:151 
1 1:181 2:177 3:174 
1 1:179 2:175 3:172 
1 1:179 2:176 3:171 
1 1:178 2:175 3:170 
1 1:176 2:173 3:168 
1 1:176 2:173 3:168 
1 1:178 2:175 3:170 
1 1:181 2:178 3:173 
1 1:184 2:181 3:174 
1 1:188 2:188 3:180 
1 1:194 2:191 3:184 
1 1:196 2:193 3:184 
1 1:202 2:198 3:187 
1 1:207 2:203 3:192 
1 1:200 2:196 3:184 
1 1:193 2:187 3:173 
1 1:207 2:201 3:185 
1 1:175 2:171 3:168 
1 1:177 2:173 3:170 
1 1:195 2:190 3:186 
1 1:185 2:180 3:176 
1 1:189 2:181 3:178 
1 1:191 2:184 3:178 
1 1:186 2:179 3:173 
1 1:184 2:177 3:171 
1 1:173 2:166 3:160 
1 1:151 2:144 3:138 
1 1:155 2:155 3:147 
1 1:157 2:156 3:151 
1 1:149 2:150 3:145 
1 1:145 2:145 3:143 
1 1:150 2:144 3:128 
1 1:151 2:145 3:149 
1 1:140 2:139 3:135 
1 1:137 2:136 3:131 
1 1:126 2:126 3:116 
1 1:132 2:135 3:116 
1 1:139 2:147 3:106 
0.9795408277506633 1:117 2:120 3:113 
1 1:182 2:174 3:153 
1 1:188 2:181 3:162 
1 1:187 2:180 3:161 
1 1:188 2:181 3:163 
1 1:185 2:179 3:165 
1 1:190 2:184 3:170 
1 1:187 2:181 3:169 
1 1:187 2:183 3:172 
1 1:189 2:185 3:176 
1 1:181 2:177 3:168 
1 1:160 2:155 3:149 
1 1:136 2:133 3:126 
1 1:124 2:121 3:114 
1 1:125 2:120 3:124 
1 1:114 2:109 3:115 
1 1:123 2:121 3:126 
1 1:115 2:114 3:120 
1 1:125 2:126 3:131 
1 1:118 2:121 3:128 
1 1:94 2:101 3:109 
0.9983333995848349 1:171 2:173 3:172 
1 1:174 2:175 3:167 
1 1:169 2:171 3:160 
1 1:187 2:190 3:179 
1 1:175 2:172 3:167 
1 1:176 2:173 3:168 
1 1:178 2:175 3:170 
1 1:180 2:177 3:172 
1 1:182 2:179 3:174 
1 1:184 2:181 3:176 
1 1:186 2:183 3:176 
1 1:186 2:185 3:180 
1 1:189 2:186 3:177 
1 1:196 2:192 3:181 
1 1:201 2:197 3:186 
1 1:208 2:204 3:192 
1 1:202 2:198 3:186 
1 1:197 2:191 3:177 
1 1:203 2:196 3:178 
1 1:184 2:179 3:175 
1 1:185 2:180 3:176 
1 1:199 2:194 3:190 
1 1:195 2:190 3:184 
1 1:190 2:185 3:179 
1 1:184 2:177 3:171 
1 1:184 2:177 3:171 
1 1:183 2:176 3:170 
1 1:151 2:144 3:138 
1 1:150 2:150 3:142 
1 1:155 2:154 3:149 
1 1:158 2:159 3:154 
1 1:147 2:147 3:149 
1 1:147 2:146 3:151 
1 1:137 2:133 3:121 
1 1:89 2:84 3:80 
1 1:124 2:120 3:121 
1 1:155 2:154 3:150 
1 1:160 2:159 3:154 
1 1:128 2:128 3:120 
1 1:126 2:126 3:116 
1 1:134 2:136 3:123 
1 1:145 2:151 3:125 
1 1:132 2:139 3:123 
1 1:110 2:111 3:105 
1 1:128 2:131 3:124 
1 1:115 2:123 3:112 
1 1:193 2:186 3:167 
1 1:190 2:183 3:164 
1 1:190 2:183 3:165 
1 1:192 2:185 3:167 
1 1:183 2:177 3:163 
1 1:191 2:185 3:171 
1 1:194 2:190 3:179 
1 1:193 2:189 3:178 
1 1:188 2:184 3:175 
1 1:174 2:170 3:161 
1 1:147 2:144 3:135 
1 1:125 2:122 3:113 
1 1:118 2:113 3:117 
1 1:126 2:124 3:127 
1 1:118 2:117 3:122 
1 1:117 2:118 3:123 
1 1:99 2:102 3:109 
1 1:176 2:177 3:179 
1 1:196 2:196 3:188 
1 1:198 2:198 3:188 
1 1:185 2:185 3:175 
1 1:171 2:171 3:161 
1 1:167 2:169 3:156 
1 1:180 2:182 3:169 
1 1:174 2:171 3:166 
1 1:177 2:174 3:169 
1 1:182 2:179 3:174 
1 1:187 2:186 3:181 
1 1:186 2:183 3:176 
1 1:184 2:181 3:174 
0.978410976876988 1:185 2:182 3:173 
1 1:191 2:187 3:178 
1 1:196 2:192 3:181 
1 1:210 2:206 3:194 
1 1:205 2:201 3:189 
1 1:200 2:194 3:180 
1 1:195 2:189 3:175 
1 1:180 2:177 3:172 
1 1:185 2:180 3:176 
1 1:185 2:180 3:174 
1 1:192 2:187 3:181 
1 1:196 2:191 3:185 
1 1:195 2:190 3:184 
1 1:190 2:185 3:179 
1 1:183 2:176 3:170 
1 1:192 2:185 3:179 
1 1:216 2:209 3:201 
1 1:208 2:201 3:193 
1 1:171 2:164 3:156 
1 1:147 2:146 3:141 
1 1:148 2:147 3:142 
0.9907929682496098 1:168 2:169 3:164 
0.9847036518552844 1:147 2:146 3:151 
1 1:189 2:193 3:194 
1 1:107 2:105 3:93 
1 1:85 2:82 3:75 
1 1:82 2:79 3:74 
1 1:138 2:137 3:133 
1 1:168 2:167 3:163 
1 1:133 2:132 3:127 
1 1:116 2:116 3:108 
1 1:130 2:130 3:118 
1 1:145 2:147 3:133 
1 1:129 2:136 3:120 
1 1:194 2:185 3:168 
1 1:188 2:181 3:163 
1 1:185 2:178 3:160 
1 1:188 2:181 3:165 
1 1:185 2:179 3:165 
1 1:185 2:179 3:165 
1 1:195 2:191 3:179 
1 1:195 2:191 3:180 
1 1:191 2:187 3:176 
1 1:166 2:164 3:152 
1 1:138 2:136 3:124 
1 1:128 2:124 3:125 
1 1:129 2:125 3:126 
1 1:129 2:127 3:130 
1 1:114 2:114 3:116 
1 1:128 2:127 3:132 
1 1:134 2:135 3:140 
1 1:100 2:103 3:110 
1 1:91 2:98 3:106 
1 1:196 2:193 3:184 
1 1:200 2:198 3:186 
1 1:197 2:195 3:183 
1 1:185 2:183 3:171 
1 1:172 2:172 3:160 
1 1:174 2:174 3:162 
1 1:181 2:181 3:169 
1 1:182 2:179 3:174 
1 1:181 2:178 3:173 
1 1:180 2:177 3:172 
1 1:176 2:173 3:168 
1 1:179 2:176 3:171 
1 1:183 2:180 3:175 
1 1:192 2:189 3:184 
1 1:191 2:190 3:185 
1 1:190 2:186 3:177 
1 1:194 2:190 3:179 
1 1:204 2:200 3:188 
1 1:202 2:198 3:186 
1 1:201 2:195 3:181 
1 1:197 2:191 3:177 
1 1:205 2:198 3:182 
1 1:204 2:201 3:194 
1 1:183 2:178 3:172 
1 1:181 2:176 3:170 
1 1:185 2:180 3:174 
1 1:190 2:185 3:179 
1 1:191 2:186 3:180 
1 1:192 2:188 3:179 
1 1:182 2:178 3:169 
1 1:184 2:180 3:171 
1 1:190 2:186 3:177 
1 1:196 2:192 3:183 
1 1:211 2:207 3:198 
1 1:236 2:232 3:223 
1 1:209 2:202 3:194 
1 1:162 2:161 3:156 
1 1:141 2:140 3:135 
1 1:163 2:164 3:159 
1 1:146 2:147 3:152 
1 1:98 2:98 3:88 
1 1:81 2:81 3:73 
1 1:104 2:103 3:101 
1 1:151 2:150 3:146 
1 1:144 2:143 3:138 
1 1:128 2:128 3:120 
1 1:126 2:126 3:116 
1 1:151 2:151 3:139 
1 1:136 2:139 3:122 
1 1:192 2:183 3:168 
1 1:183 2:176 3:160 
1 1:180 2:173 3:157 
1 1:185 2:178 3:162 
1 1:193 2:187 3:173 
1 1:187 2:181 3:167 
1 1:182 2:176 3:162 
1 1:192 2:186 3:172 
1 1:192 2:188 3:176 
1 1:198 2:194 3:182 
1 1:201 2:197 3:185 
1 1:182 2:180 3:167 
1 1:155 2:153 3:140 
1 1:120 2:116 3:115 
1 1:126 2:125 3:123 
1 1:130 2:128 3:129 
1 1:126 2:124 3:125 
1 1:149 2:149 3:151 
1 1:128 2:129 3:134 
1 1:110 2:114 3:123 
1 1:175 2:172 3:165 
1 1:183 2:179 3:170 
1 1:184 2:180 3:169 
1 1:190 2:186 3:174 
1 1:199 2:195 3:183 
1 1:198 2:194 3:182 
1 1:185 2:183 3:170 
1 1:183 2:180 3:175 
1 1:181 2:178 3:173 
1 1:179 2:176 3:171 
1 1:178 2:175 3:170 
1 1:178 2:175 3:170 
1 1:179 2:176 3:171 
1 1:180 2:177 3:172 
1 1:182 2:179 3:174 
1 1:192 2:191 3:186 
1 1:197 2:194 3:189 
1 1:195 2:192 3:185 
1 1:189 2:185 3:176 
1 1:191 2:187 3:176 
1 1:196 2:192 3:181 
1 1:199 2:195 3:183 
1 1:203 2:197 3:185 
1 1:201 2:195 3:181 
1 1:198 2:192 3:178 
1 1:201 2:194 3:178 
1 1:205 2:198 3:182 
1 1:198 2:194 3:185 
1 1:198 2:194 3:185 
1 1:187 2:183 3:174 
1 1:173 2:169 3:160 
1 1:175 2:171 3:162 
1 1:190 2:186 3:177 
1 1:194 2:190 3:181 
1 1:186 2:182 3:173 
1 1:182 2:178 3:169 
1 1:184 2:180 3:171 
1 1:202 2:198 3:189 
1 1:224 2:220 3:211 
1 1:235 2:231 3:220 
1 1:236 2:232 3:221 
1 1:195 2:194 3:189 
1 1:144 2:143 3:139 
1 1:146 2:147 3:142 
1 1:176 2:180 3:181 
0.000109425192583168 1:191 2:197 3:197 
1 1:130 2:132 3:118 
1 1:88 2:90 3:79 
1 1:122 2:118 3:115 
1 1:150 2:149 3:145 
1 1:173 2:172 3:167 
1 1:146 2:146 3:138 
1 1:157 2:157 3:145 
1 1:150 2:152 3:138 
1 1:199 2:189 3:177 
1 1:194 2:184 3:172 
1 1:184 2:176 3:163 
1 1:178 2:170 3:157 
1 1:182 2:174 3:161 
1 1:190 2:182 3:169 
1 1:192 2:186 3:172 
1 1:189 2:183 3:169 
1 1:186 2:180 3:166 
1 1:193 2:187 3:173 
1 1:192 2:189 3:174 
1 1:190 2:187 3:172 
1 1:196 2:193 3:178 
1 1:201 2:198 3:183 
1 1:171 2:169 3:154 
1 1:131 2:127 3:124 
1 1:128 2:127 3:123 
1 1:137 2:136 3:134 
1 1:156 2:155 3:153 
1 1:151 2:151 3:153 
1 1:128 2:129 3:133 
1 1:98 2:99 3:104 
1 1:129 2:132 3:139 
1 1:196 2:192 3:189 
1 1:192 2:187 3:181 
1 1:181 2:177 3:168 
1 1:189 2:183 3:171 
1 1:187 2:181 3:169 
1 1:189 2:183 3:169 
1 1:197 2:191 3:177 
1 1:198 2:195 3:180 
1 1:183 2:180 3:165 
1 1:176 2:174 3:159 
1 1:183 2:180 3:175 
1 1:182 2:179 3:174 
1 1:180 2:177 3:172 
1 1:179 2:176 3:171 
1 1:177 2:174 3:169 
1 1:176 2:173 3:168 
1 1:178 2:175 3:170 
1 1:181 2:178 3:173 
1 1:185 2:182 3:175 
1 1:187 2:183 3:174 
1 1:188 2:184 3:175 
1 1:194 2:190 3:179 
1 1:199 2:195 3:183 
1 1:206 2:200 3:188 
1 1:206 2:200 3:186 
1 1:203 2:197 3:183 
1 1:194 2:190 3:179 
1 1:199 2:195 3:184 
1 1:192 2:188 3:177 
1 1:176 2:172 3:161 
1 1:172 2:168 3:157 
1 1:183 2:179 3:168 
1 1:190 2:186 3:175 
1 1:187 2:183 3:172 
1 1:202 2:198 3:187 
1 1:203 2:199 3:188 
1 1:224 2:220 3:209 
1 1:245 2:241 3:230 
1 1:240 2:236 3:225 
1 1:242 2:238 3:227 
1 1:168 2:167 3:163 
1 1:140 2:140 3:138 
1 1:154 2:154 3:152 
1 1:149 2:149 3:151 
1 1:198 2:194 3:193 
1 1:197 2:193 3:192 
1 1:126 2:122 3:119 
1 1:192 2:191 3:186 
1 1:164 2:164 3:156 
1 1:150 2:150 3:140 
1 1:143 2:144 3:130 
1 1:154 2:164 3:137 
1 1:182 2:174 3:163 
1 1:175 2:167 3:156 
1 1:178 2:170 3:159 
1 1:186 2:178 3:167 
1 1:191 2:185 3:171 
1 1:190 2:184 3:170 
1 1:188 2:182 3:168 
1 1:190 2:184 3:170 
1 1:188 2:185 3:168 
1 1:187 2:184 3:167 
0.01451630359090705 1:195 2:194 3:176 
0.9599680630823065 1:187 2:186 3:168 
1 1:160 2:157 3:152 
1 1:146 2:143 3:138 
1 1:151 2:148 3:143 
1 1:138 2:138 3:140 
1 1:126 2:125 3:130 
1 1:129 2:128 3:134 
1 1:143 2:142 3:148 
0.9999437606687134 1:176 2:180 3:181 
1 1:194 2:189 3:183 
1 1:197 2:190 3:180 
1 1:192 2:184 3:173 
1 1:193 2:187 3:173 
1 1:182 2:179 3:164 
1 1:172 2:169 3:154 
1 1:185 2:182 3:175 
1 1:185 2:182 3:175 
1 1:185 2:182 3:175 
1 1:185 2:182 3:175 
1 1:186 2:183 3:176 
1 1:186 2:183 3:176 
1 1:183 2:180 3:175 
1 1:180 2:177 3:172 
1 1:178 2:175 3:170 
1 1:179 2:176 3:171 
1 1:181 2:178 3:173 
1 1:181 2:178 3:173 
1 1:181 2:178 3:171 
1 1:185 2:181 3:172 
1 1:189 2:185 3:176 
1 1:192 2:188 3:177 
1 1:197 2:193 3:182 
1 1:205 2:199 3:187 
1 1:209 2:203 3:191 
1 1:207 2:201 3:187 
1 1:202 2:196 3:182 
1 1:197 2:191 3:177 
1 1:198 2:192 3:178 
1 1:198 2:192 3:180 
1 1:186 2:180 3:168 
1 1:180 2:176 3:164 
1 1:191 2:187 3:175 
1 1:206 2:202 3:190 
1 1:225 2:221 3:209 
1 1:228 2:224 3:212 
1 1:242 2:238 3:227 
1 1:205 2:204 3:202 
1 1:143 2:143 3:143 
1 1:144 2:144 3:144 
1 1:151 2:151 3:153 
1 1:162 2:159 3:154 
1 1:164 2:161 3:156 
1 1:156 2:156 3:146 
1 1:139 2:139 3:127 
1 1:136 2:137 3:123 
1 1:191 2:181 3:172 
1 1:187 2:177 3:168 
1 1:178 2:170 3:159 
1 1:171 2:163 3:152 
1 1:174 2:166 3:155 
1 1:184 2:176 3:165 
1 1:191 2:185 3:171 
1 1:193 2:187 3:173 
1 1:187 2:181 3:167 
1 1:186 2:180 3:166 
1 1:183 2:180 3:163 
1 1:184 2:181 3:164 
1 1:182 2:179 3:172 
1 1:163 2:160 3:153 
1 1:155 2:152 3:145 
1 1:172 2:169 3:162 
1 1:176 2:173 3:168 
1 1:176 2:173 3:168 
0.9990567174766405 1:196 2:192 3:191 
1 1:143 2:139 3:140 
1 1:129 2:124 3:128 
1 1:154 2:152 3:155 
1 1:199 2:199 3:197 
1 1:198 2:197 3:193 
1 1:180 2:176 3:167 
1 1:189 2:182 3:172 
1 1:197 2:189 3:178 
1 1:198 2:189 3:174 
1 1:190 2:183 3:167 
1 1:193 2:186 3:170 
1 1:196 2:190 3:176 
1 1:187 2:181 3:167 
1 1:177 2:174 3:165 
1 1:177 2:174 3:165 
1 1:179 2:176 3:167 
1 1:181 2:178 3:169 
1 1:184 2:181 3:172 
1 1:179 2:176 3:171 
1 1:176 2:173 3:168 
1 1:178 2:175 3:168 
1 1:187 2:182 3:176 
0.9634471064980905 1:193 2:189 3:180 
1 1:189 2:185 3:176 
1 1:194 2:190 3:179 
1 1:203 2:197 3:185 
1 1:209 2:203 3:191 
1 1:211 2:205 3:191 
1 1:207 2:201 3:187 
1 1:203 2:195 3:182 
1 1:201 2:195 3:181 
1 1:194 2:188 3:174 
1 1:201 2:195 3:181 
1 1:212 2:206 3:192 
1 1:183 2:177 3:163 
1 1:196 2:192 3:180 
1 1:229 2:225 3:213 
1 1:247 2:245 3:233 
1 1:230 2:228 3:216 
1 1:147 2:147 3:147 
1 1:144 2:144 3:144 
1 1:144 2:145 3:147 
0.9929755432159191 1:189 2:188 3:186 
1 1:124 2:121 3:116 
1 1:159 2:156 3:151 
1 1:182 2:179 3:172 
1 1:154 2:154 3:144 
1 1:142 2:143 3:129 
1 1:186 2:176 3:167 
1 1:191 2:181 3:172 
1 1:187 2:179 3:168 
1 1:177 2:169 3:158 
1 1:177 2:169 3:158 
1 1:200 2:194 3:180 
1 1:202 2:196 3:182 
1 1:185 2:179 3:165 
1 1:182 2:176 3:162 
1 1:176 2:173 3:156 
1 1:178 2:175 3:158 
1 1:185 2:182 3:165 
1 1:188 2:186 3:174 
1 1:179 2:177 3:165 
1 1:140 2:138 3:126 
1 1:151 2:148 3:139 
1 1:181 2:178 3:169 
1 1:202 2:199 3:192 
1 1:181 2:176 3:172 
1 1:178 2:173 3:170 
1 1:174 2:168 3:168 
1 1:172 2:166 3:166 
1 1:192 2:191 3:186 
1 1:194 2:191 3:184 
1 1:190 2:186 3:177 
1 1:187 2:180 3:170 
1 1:190 2:182 3:171 
1 1:200 2:188 3:172 
1 1:183 2:174 3:157 
1 1:185 2:178 3:162 
1 1:200 2:194 3:180 
1 1:194 2:188 3:174 
1 1:174 2:172 3:160 
1 1:173 2:171 3:159 
1 1:174 2:172 3:160 
1 1:177 2:175 3:163 
1 1:181 2:178 3:169 
1 1:184 2:181 3:172 
1 1:183 2:180 3:171 
1 1:181 2:178 3:171 
1 1:181 2:178 3:171 
1 1:181 2:178 3:171 
0.9990479416961652 1:183 2:180 3:175 
1 1:185 2:180 3:174 
1 1:179 2:175 3:166 
1 1:184 2:180 3:171 
1 1:189 2:185 3:174 
1 1:198 2:191 3:181 
1 1:204 2:198 3:186 
1 1:208 2:202 3:190 
1 1:207 2:201 3:187 
1 1:206 2:198 3:185 
1 1:192 2:185 3:169 
1 1:207 2:201 3:185 
1 1:198 2:192 3:178 
1 1:184 2:178 3:164 
1 1:206 2:200 3:186 
1 1:243 2:241 3:228 
1 1:150 2:150 3:150 
1 1:145 2:145 3:145 
1 1:152 2:154 3:153 
1 1:126 2:123 3:116 
1 1:165 2:162 3:155 
1 1:182 2:179 3:170 
1 1:153 2:153 3:141 
1 1:135 2:136 3:122 
1 1:186 2:178 3:167 
1 1:179 2:171 3:160 
1 1:175 2:167 3:156 
1 1:181 2:173 3:162 
1 1:189 2:183 3:169 
1 1:194 2:188 3:174 
1 1:195 2:189 3:175 
1 1:188 2:182 3:168 
1 1:182 2:179 3:162 
1 1:185 2:182 3:165 
1 1:185 2:182 3:165 
1 1:181 2:178 3:161 
1 1:201 2:197 3:185 
1 1:198 2:194 3:182 
1 1:168 2:164 3:152 
1 1:177 2:173 3:161 
1 1:197 2:193 3:182 
1 1:198 2:194 3:183 
1 1:204 2:200 3:191 
1 1:194 2:190 3:181 
1 1:189 2:185 3:176 
1 1:188 2:183 3:177 
1 1:186 2:181 3:175 
1 1:183 2:178 3:174 
1 1:181 2:176 3:172 
1 1:181 2:176 3:172 
1 1:195 2:191 3:180 
1 1:188 2:181 3:165 
1 1:193 2:184 3:169 
1 1:188 2:179 3:162 
1 1:185 2:178 3:162 
1 1:192 2:186 3:172 
1 1:194 2:188 3:174 
1 1:188 2:185 3:170 
1 1:183 2:181 3:168 
1 1:178 2:176 3:163 
1 1:180 2:178 3:166 
1 1:185 2:183 3:171 
1 1:187 2:185 3:173 
1 1:184 2:181 3:172 
1 1:180 2:177 3:168 
1 1:183 2:180 3:173 
1 1:181 2:178 3:171 
1 1:178 2:174 3:171 
1 1:178 2:174 3:171 
1 1:191 2:186 3:180 
1 1:188 2:183 3:177 
1 1:185 2:181 3:172 
1 1:188 2:184 3:175 
1 1:195 2:188 3:178 
1 1:203 2:197 3:185 
1 1:204 2:198 3:186 
1 1:186 2:180 3:166 
1 1:215 2:211 3:199 
1 1:236 2:236 3:228 
1 1:233 2:233 3:225 
1 1:151 2:151 3:151 
1 1:154 2:156 3:155 
1 1:163 2:165 3:164 
1 1:155 2:157 3:156 
1 1:148 2:152 3:153 
1 1:111 2:107 3:96 
1 1:121 2:118 3:111 
1 1:152 2:149 3:142 
1 1:174 2:171 3:164 
1 1:168 2:165 3:156 
1 1:140 2:140 3:128 
1 1:133 2:134 3:118 
1 1:134 2:136 3:115 
1 1:179 2:169 3:157 
1 1:179 2:169 3:157 
1 1:180 2:172 3:159 
1 1:179 2:171 3:158 
1 1:176 2:168 3:155 
1 1:173 2:165 3:152 
1 1:178 2:172 3:158 
1 1:187 2:181 3:167 
1 1:199 2:193 3:179 
1 1:184 2:178 3:164 
1 1:180 2:177 3:162 
1 1:190 2:187 3:172 
1 1:188 2:185 3:170 
1 1:175 2:172 3:157 
1 1:177 2:175 3:160 
1 1:193 2:191 3:176 
1 1:207 2:201 3:187 
1 1:190 2:184 3:170 
1 1:194 2:188 3:174 
1 1:202 2:199 3:184 
1 1:196 2:192 3:180 
1 1:195 2:191 3:179 
1 1:190 2:186 3:174 
1 1:193 2:189 3:178 
1 1:191 2:187 3:176 
1 1:189 2:185 3:174 
1 1:188 2:184 3:175 
1 1:189 2:185 3:176 
1 1:189 2:185 3:176 
1 1:188 2:184 3:175 
1 1:187 2:183 3:174 
1 1:186 2:184 3:172 
1 1:188 2:184 3:173 
1 1:194 2:190 3:178 
1 1:199 2:193 3:179 
1 1:186 2:177 3:162 
1 1:189 2:180 3:163 
1 1:187 2:179 3:166 
1 1:189 2:183 3:169 
1 1:189 2:185 3:173 
1 1:186 2:182 3:170 
1 1:201 2:199 3:184 
1 1:192 2:190 3:177 
1 1:182 2:180 3:167 
1 1:181 2:179 3:166 
1 1:191 2:189 3:177 
1 1:188 2:186 3:174 
1 1:183 2:180 3:171 
1 1:185 2:182 3:175 
1 1:183 2:180 3:173 
1 1:180 2:177 3:172 
1 1:175 2:171 3:168 
1 1:174 2:170 3:167 
1 1:177 2:173 3:170 
1 1:185 2:184 3:182 
1 1:193 2:189 3:186 
1 1:194 2:189 3:185 
1 1:195 2:190 3:184 
1 1:191 2:187 3:178 
1 1:192 2:188 3:179 
1 1:196 2:189 3:179 
1 1:198 2:191 3:181 
1 1:203 2:197 3:185 
1 1:206 2:198 3:187 
1 1:208 2:200 3:189 
1 1:209 2:200 3:185 
1 1:200 2:191 3:176 
1 1:194 2:188 3:174 
1 1:189 2:183 3:171 
1 1:188 2:184 3:173 
1 1:226 2:222 3:211 
0.9909857769235748 1:236 2:233 3:224 
1 1:238 2:238 3:230 
1 1:237 2:237 3:229 
1 1:151 2:153 3:150 
1 1:155 2:157 3:154 
1 1:154 2:156 3:155 
1 1:157 2:159 3:158 
1 1:135 2:132 3:117 
1 1:99 2:95 3:83 
1 1:116 2:112 3:101 
1 1:125 2:121 3:112 
1 1:125 2:122 3:115 
1 1:145 2:142 3:135 
1 1:173 2:170 3:163 
1 1:145 2:142 3:133 
1 1:143 2:143 3:131 
1 1:132 2:133 3:117 
1 1:177 2:168 3:153 
1 1:171 2:162 3:147 
1 1:170 2:163 3:147 
1 1:178 2:171 3:155 
1 1:179 2:172 3:156 
1 1:173 2:165 3:152 
1 1:173 2:167 3:153 
1 1:180 2:174 3:160 
1 1:192 2:186 3:172 
1 1:167 2:161 3:147 
1 1:161 2:158 3:143 
1 1:184 2:180 3:168 
1 1:195 2:191 3:179 
1 1:184 2:180 3:168 
0.9505710806346798 1:181 2:179 3:166 
1 1:195 2:193 3:180 
1 1:192 2:187 3:168 
1 1:190 2:184 3:170 
1 1:195 2:189 3:175 
1 1:192 2:189 3:174 
1 1:188 2:185 3:170 
1 1:185 2:181 3:169 
1 1:187 2:183 3:171 
1 1:190 2:186 3:174 
1 1:191 2:187 3:175 
1 1:185 2:183 3:170 
1 1:186 2:182 3:170 
1 1:192 2:189 3:174 
1 1:186 2:177 3:160 
1 1:189 2:183 3:169 
1 1:187 2:183 3:171 
1 1:189 2:185 3:174 
1 1:188 2:186 3:174 
1 1:194 2:192 3:177 
0.9604711545264899 1:186 2:184 3:169 
1 1:185 2:183 3:170 
1 1:190 2:188 3:176 
1 1:186 2:183 3:174 
1 1:184 2:181 3:174 
1 1:176 2:172 3:169 
1 1:175 2:171 3:168 
1 1:178 2:174 3:171 
1 1:193 2:188 3:182 
1 1:198 2:193 3:187 
1 1:197 2:193 3:184 
1 1:197 2:190 3:182 
1 1:197 2:190 3:180 
1 1:199 2:192 3:182 
1 1:203 2:197 3:185 
1 1:209 2:201 3:190 
1 1:211 2:203 3:192 
1 1:197 2:187 3:175 
1 1:202 2:194 3:181 
1 1:195 2:188 3:178 
1 1:183 2:179 3:168 
1 1:208 2:204 3:195 
1 1:228 2:225 3:218 
0.966144214149509 1:241 2:241 3:233 
0.9571488738182687 1:237 2:236 3:231 
1 1:152 2:154 3:151 
1 1:143 2:145 3:142 
1 1:192 2:194 3:189 
1 1:187 2:188 3:182 
1 1:128 2:123 3:104 
1 1:126 2:122 3:110 
1 1:126 2:122 3:111 
1 1:100 2:96 3:87 
1 1:107 2:104 3:97 
1 1:150 2:147 3:140 
1 1:158 2:155 3:148 
1 1:153 2:150 3:141 
1 1:136 2:137 3:123 
1 1:117 2:118 3:102 
1 1:99 2:103 3:86 
1 1:138 2:147 3:130 
1 1:184 2:175 3:158 
1 1:172 2:163 3:146 
1 1:167 2:160 3:142 
1 1:175 2:168 3:150 
1 1:180 2:173 3:157 
1 1:175 2:168 3:152 
1 1:169 2:163 3:147 
1 1:170 2:164 3:150 
1 1:181 2:175 3:161 
1 1:152 2:146 3:134 
1 1:142 2:138 3:126 
1 1:170 2:166 3:154 
1 1:195 2:191 3:180 
1 1:195 2:191 3:180 
1 1:188 2:186 3:174 
1 1:190 2:188 3:176 
1 1:194 2:187 3:169 
1 1:195 2:188 3:170 
1 1:203 2:200 3:183 
1 1:184 2:183 3:165 
1 1:184 2:183 3:165 
1 1:188 2:187 3:169 
1 1:193 2:191 3:176 
1 1:187 2:184 3:169 
1 1:188 2:181 3:163 
1 1:192 2:183 3:166 
0.9965217002191636 1:201 2:194 3:178 
1 1:188 2:184 3:172 
1 1:186 2:184 3:172 
1 1:187 2:185 3:173 
1 1:186 2:186 3:176 
1 1:196 2:195 3:177 
1 1:191 2:189 3:174 
1 1:179 2:177 3:162 
1 1:179 2:177 3:164 
1 1:185 2:183 3:171 
1 1:191 2:189 3:177 
1 1:184 2:181 3:174 
1 1:187 2:182 3:178 
1 1:197 2:192 3:186 
1 1:194 2:190 3:181 
1 1:193 2:186 3:178 
1 1:191 2:184 3:174 
1 1:193 2:186 3:176 
1 1:206 2:198 3:187 
1 1:200 2:188 3:176 
1 1:202 2:193 3:184 
1 1:198 2:191 3:181 
1 1:188 2:184 3:175 
1 1:182 2:177 3:171 
1 1:211 2:208 3:201 
1 1:244 2:243 3:239 
1 1:149 2:151 3:146 
1 1:150 2:152 3:149 
1 1:159 2:161 3:158 
1 1:201 2:205 3:204 
1 1:193 2:194 3:188 
1 1:103 2:99 3:87 
1 1:111 2:108 3:103 
1 1:168 2:165 3:160 
1 1:172 2:169 3:162 
1 1:156 2:156 3:146 
1 1:131 2:132 3:114 
0.9958124155289152 1:137 2:142 3:122 
1 1:123 2:127 3:110 
0.9686840041291204 1:150 2:156 3:144 
1 1:182 2:174 3:155 
1 1:172 2:165 3:146 
1 1:173 2:166 3:147 
1 1:176 2:169 3:151 
1 1:173 2:166 3:148 
1 1:165 2:159 3:143 
1 1:160 2:154 3:140 
